{"learner":{"attributes":{"scikit_learn":"{\"use_label_encoder\": true, \"n_estimators\": 100, \"objective\": \"binary:logistic\", \"max_depth\": null, \"learning_rate\": null, \"verbosity\": null, \"booster\": null, \"tree_method\": null, \"gamma\": null, \"min_child_weight\": null, \"max_delta_step\": null, \"subsample\": null, \"colsample_bytree\": null, \"colsample_bylevel\": null, \"colsample_bynode\": null, \"reg_alpha\": null, \"reg_lambda\": null, \"scale_pos_weight\": null, \"base_score\": null, \"missing\": NaN, \"num_parallel_tree\": null, \"kwargs\": {}, \"random_state\": null, \"n_jobs\": null, \"monotone_constraints\": null, \"interaction_constraints\": null, \"importance_type\": \"gain\", \"gpu_id\": null, \"validate_parameters\": null, \"classes_\": [0.0, 1.0], \"n_classes_\": 2, \"_le\": {\"classes_\": [0.0, 1.0]}, \"_estimator_type\": \"classifier\"}"},"feature_names":["Server_port","Bytes_client_server","Bytes_server_client","Session_time","Addr_in_DNS"],"feature_types":["float","float","float","float","float"],"gradient_booster":{"model":{"gbtree_model_param":{"num_trees":"100","size_leaf_vector":"0"},"tree_info":[0,0,0,0,0,0,0,0,0,0,0,0,0,0,0,0,0,0,0,0,0,0,0,0,0,0,0,0,0,0,0,0,0,0,0,0,0,0,0,0,0,0,0,0,0,0,0,0,0,0,0,0,0,0,0,0,0,0,0,0,0,0,0,0,0,0,0,0,0,0,0,0,0,0,0,0,0,0,0,0,0,0,0,0,0,0,0,0,0,0,0,0,0,0,0,0,0,0,0,0],"trees":[{"base_weights":[2.994012E-3,1.812825E0,-1.3656619E0,1.9841269E0,5.974026E-1,1.8651686E0,-1.7817109E0,-1.7241379E0,1.8461539E0,1.9058824E0,5E-1,-1.8041543E0,1E0,-1.9211046E0,-1.4152046E0,-1.9379845E0,1.7391305E-1,1.7037038E0,-1.6521739E0],"categories":[],"categories_nodes":[],"categories_segments":[],"categories_sizes":[],"default_left":[true,true,true,false,true,true,true,false,false,false,false,true,false,false,true,false,true,false,false],"id":0,"left_children":[1,3,5,-1,7,9,11,-1,-1,-1,-1,13,-1,-1,15,-1,17,-1,-1],"loss_changes":[8.298056E2,2.8848145E1,2.597263E2,0E0,5.8989292E1,2.8373718E-1,1.2386169E1,0E0,0E0,0E0,0E0,4.945923E0,0E0,0E0,3.5851974E1,0E0,3.494042E1,0E0,0E0],"parents":[2147483647,0,0,1,1,2,2,4,4,5,5,6,6,11,11,14,14,16,16],"right_children":[2,4,6,-1,8,10,12,-1,-1,-1,-1,14,-1,-1,16,-1,18,-1,-1],"split_conditions":[1.77515E4,5.2005E3,4.29755E-2,5.952381E-1,6.1095E3,4.98435E4,5.86625E4,-5.172414E-1,5.538462E-1,5.717647E-1,1.5E-1,9.968065E-1,3E-1,-5.763314E-1,4.7339E4,-5.813954E-1,5.06355E4,5.1111114E-1,-4.9565217E-1],"split_indices":[0,0,3,0,0,0,0,0,0,0,0,3,0,0,0,0,0,0,0],"split_type":[0,0,0,0,0,0,0,0,0,0,0,0,0,0,0,0,0,0,0],"sum_hessian":[3.33E2,1.4325E2,1.8975E2,1.25E2,1.825E1,2.125E1,1.685E2,6.25E0,1.2E1,2.025E1,1E0,1.675E2,1E0,1.2575E2,4.175E1,3.125E1,1.05E1,5.75E0,4.75E0],"tree_param":{"num_deleted":"0","num_feature":"5","num_nodes":"19","size_leaf_vector":"0"}},{"base_weights":[4.272051E-3,1.4027395E0,-1.0480314E0,1.5380048E0,4.5515144E-1,1.4547364E0,-1.3720868E0,-1.3631439E0,1.4448583E0,4.1724396E-1,1.4956394E0,-1.3914127E0,6.079479E-1,-1.5438534E0,-1.1586918E0,1.6695423E0,-1.5387517E0],"categories":[],"categories_nodes":[],"categories_segments":[],"categories_sizes":[],"default_left":[true,true,true,false,true,true,true,false,false,false,false,true,false,false,true,false,false],"id":1,"left_children":[1,3,5,-1,7,9,11,-1,-1,-1,-1,13,-1,-1,15,-1,-1],"loss_changes":[4.5421082E2,1.6286469E1,1.4483917E2,0E0,3.4316578E1,2.5335312E-1,6.83255E0,0E0,0E0,0E0,0E0,3.7185059E0,0E0,0E0,7.292116E1,0E0,0E0],"parents":[2147483647,0,0,1,1,2,2,4,4,5,5,6,6,11,11,14,14],"right_children":[2,4,6,-1,8,10,12,-1,-1,-1,-1,14,-1,-1,16,-1,-1],"split_conditions":[1.77515E4,5.2005E3,4.29755E-2,4.6140143E-1,6.1095E3,6.1317E4,5.1619E4,-4.089432E-1,4.3345752E-1,1.251732E-1,4.4869184E-1,4.7339E4,1.8238437E-1,-4.6315604E-1,5.06355E4,5.008627E-1,-4.6162555E-1],"split_indices":[0,0,3,0,0,1,0,0,0,0,0,0,0,0,0,0,0],"split_type":[0,0,0,0,0,0,0,0,0,0,0,0,0,0,0,0,0],"sum_hessian":[3.0664948E2,1.315251E2,1.7512439E2,1.1455032E2,1.6974771E1,1.9675558E1,1.5544884E2,5.8499284E0,1.1124844E1,1.1711255E0,1.8504433E1,1.5424066E2,1.2081708E0,8.979061E1,6.445004E1,7.2329407E0,5.7217106E1],"tree_param":{"num_deleted":"0","num_feature":"5","num_nodes":"17","size_leaf_vector":"0"}},{"base_weights":[6.2368712E-3,1.2123805E0,-8.9616436E-1,1.3336868E0,3.8122967E-1,1.2475781E0,-1.1788579E0,-1.1664598E0,1.2417659E0,2.4274504E-1,1.2944201E0,-1.1981356E0,5.145162E-1,-1.3353101E0,-9.883039E-1,1.3720732E0,-1.3288739E0],"categories":[],"categories_nodes":[],"categories_segments":[],"categories_sizes":[],"default_left":[true,true,true,false,true,true,true,false,false,false,false,true,false,false,true,false,false],"id":2,"left_children":[1,3,5,-1,7,9,11,-1,-1,-1,-1,13,-1,-1,15,-1,-1],"loss_changes":[2.830122E2,1.0711166E1,9.16118E1,0E0,2.2189198E1,5.243168E-1,4.923126E0,0E0,0E0,0E0,0E0,2.4435577E0,0E0,0E0,4.6463776E1,0E0,0E0],"parents":[2147483647,0,0,1,1,2,2,4,4,5,5,6,6,11,11,14,14],"right_children":[2,4,6,-1,8,10,12,-1,-1,-1,-1,14,-1,-1,16,-1,-1],"split_conditions":[1.77515E4,5.2005E3,4.29755E-2,4.0010607E-1,6.1095E3,6.9500005E-5,5.1619E4,-3.4993795E-1,3.7252977E-1,7.282352E-2,3.8832605E-1,4.7339E4,1.5435486E-1,-4.0059304E-1,5.06355E4,4.1162196E-1,-3.9866218E-1],"split_indices":[0,0,3,0,0,3,0,0,0,0,0,0,0,0,0,0,0],"split_type":[0,0,0,0,0,0,0,0,0,0,0,0,0,0,0,0,0],"sum_hessian":[2.5802158E2,1.1027937E2,1.4774222E2,9.570642E1,1.4572957E1,1.6815151E1,1.3092706E2,5.080352E0,9.492605E0,1.0243108E0,1.5790841E1,1.2974251E2,1.1845561E0,7.52108E1,5.45317E1,6.4941497E0,4.8037548E1],"tree_param":{"num_deleted":"0","num_feature":"5","num_nodes":"17","size_leaf_vector":"0"}},{"base_weights":[8.023486E-3,1.1018628E0,-8.061143E-1,1.21711E0,3.3286837E-1,1.115439E0,-1.0663793E0,-1.0361644E0,1.1139292E0,2.8539887E-1,1.1643821E0,-1.0869619E0,4.3854132E-1,-1.2163643E0,-8.872162E-1,1.1919678E0,-1.2080592E0],"categories":[],"categories_nodes":[],"categories_segments":[],"categories_sizes":[],"default_left":[true,true,true,false,true,true,true,false,false,false,false,true,false,false,true,false,false],"id":3,"left_children":[1,3,5,-1,7,9,11,-1,-1,-1,-1,13,-1,-1,15,-1,-1],"loss_changes":[1.8720317E2,7.5441055E0,6.1463585E1,0E0,1.5126617E1,2.715912E-1,3.7803574E0,0E0,0E0,0E0,0E0,1.6478424E0,0E0,0E0,3.1574936E1,0E0,0E0],"parents":[2147483647,0,0,1,1,2,2,4,4,5,5,6,6,11,11,14,14],"right_children":[2,4,6,-1,8,10,12,-1,-1,-1,-1,14,-1,-1,16,-1,-1],"split_conditions":[1.77515E4,5.2005E3,4.29755E-2,3.6513302E-1,6.1095E3,9.850001E-5,5.1619E4,-3.1084934E-1,3.3417875E-1,8.5619666E-2,3.4931463E-1,4.7339E4,1.315624E-1,-3.649093E-1,5.06355E4,3.5759038E-1,-3.6241776E-1],"split_indices":[0,0,3,0,0,3,0,0,0,0,0,0,0,0,0,0,0],"split_type":[0,0,0,0,0,0,0,0,0,0,0,0,0,0,0,0,0],"sum_hessian":[2.0821667E2,8.869569E1,1.1952098E2,7.662879E1,1.2066898E1,1.3865475E1,1.0565551E2,4.2648735E0,7.802025E0,1.1524225E0,1.2713053E1,1.04503944E2,1.1515626E0,6.0330288E1,4.417366E1,5.5423055E0,3.863135E1],"tree_param":{"num_deleted":"0","num_feature":"5","num_nodes":"17","size_leaf_vector":"0"}},{"base_weights":[1.0132035E-2,1.0293608E0,-7.4426585E-1,1.1426505E0,2.9638305E-1,1.0199172E0,-9.917955E-1,-9.383094E-1,1.0215088E0,2.1642925E-1,1.0806024E0,-1.0146329E0,3.755713E-1,-1.1400818E0,-8.1809676E-1,1.0652083E0,-1.1293637E0],"categories":[],"categories_nodes":[],"categories_segments":[],"categories_sizes":[],"default_left":[true,true,true,false,true,true,true,false,false,false,false,true,false,false,true,false,false],"id":4,"left_children":[1,3,5,-1,7,9,11,-1,-1,-1,-1,13,-1,-1,15,-1,-1],"loss_changes":[1.2787599E2,5.5350266E0,4.274965E1,0E0,1.0645189E1,3.6360168E-1,3.014305E0,0E0,0E0,0E0,0E0,1.1188736E0,0E0,0E0,2.2283394E1,0E0,0E0],"parents":[2147483647,0,0,1,1,2,2,4,4,5,5,6,6,11,11,14,14],"right_children":[2,4,6,-1,8,10,12,-1,-1,-1,-1,14,-1,-1,16,-1,-1],"split_conditions":[1.77515E4,5.2005E3,4.29755E-2,3.4279516E-1,6.1095E3,6.2831E4,5.1619E4,-2.8149283E-1,3.0645266E-1,6.492878E-2,3.2418072E-1,4.7339E4,1.126714E-1,-3.4202453E-1,5.06355E4,3.195625E-1,-3.388091E-1],"split_indices":[0,0,3,0,0,1,0,0,0,0,0,0,0,0,0,0,0],"split_type":[0,0,0,0,0,0,0,0,0,0,0,0,0,0,0,0,0],"sum_hessian":[1.6431306E2,6.973422E1,9.457884E1,5.991481E1,9.819411E0,1.1253436E1,8.332541E1,3.5243702E0,6.2950416E0,1.1109252E0,1.014251E1,8.221032E1,1.1150913E0,4.7249886E1,3.4960434E1,4.6150618E0,3.0345371E1],"tree_param":{"num_deleted":"0","num_feature":"5","num_nodes":"17","size_leaf_vector":"0"}},{"base_weights":[1.2509264E-2,9.772071E-1,-6.969621E-1,1.0911603E0,2.66E-1,9.4081867E-1,-9.371863E-1,-8.58064E-1,9.472482E-1,1.7381874E-1,1.0106186E0,-9.63138E-1,3.226961E-1,-1.0868535E0,-7.6532954E-1,9.6682584E-1,-1.073079E0],"categories":[],"categories_nodes":[],"categories_segments":[],"categories_sizes":[],"default_left":[true,true,true,false,true,true,true,false,false,false,false,true,false,false,true,false,false],"id":5,"left_children":[1,3,5,-1,7,9,11,-1,-1,-1,-1,13,-1,-1,15,-1,-1],"loss_changes":[8.902581E1,4.1766434E0,3.037437E1,0E0,7.6540604E0,3.643999E-1,2.4646301E0,0E0,0E0,0E0,0E0,7.5387573E-1,0E0,0E0,1.6129917E1,0E0,0E0],"parents":[2147483647,0,0,1,1,2,2,4,4,5,5,6,6,11,11,14,14],"right_children":[2,4,6,-1,8,10,12,-1,-1,-1,-1,14,-1,-1,16,-1,-1],"split_conditions":[1.77515E4,5.2005E3,4.29755E-2,3.273481E-1,6.1095E3,1.27E-4,5.1619E4,-2.574192E-1,2.8417447E-1,5.2145623E-2,3.0318558E-1,4.7339E4,9.680883E-2,-3.2605606E-1,5.06355E4,2.9004776E-1,-3.219237E-1],"split_indices":[0,0,3,0,0,3,0,0,0,0,0,0,0,0,0,0,0],"split_type":[0,0,0,0,0,0,0,0,0,0,0,0,0,0,0,0,0],"sum_hessian":[1.2807866E2,5.4116634E1,7.396202E1,4.6182762E1,7.9338713E0,9.087767E0,6.487425E1,2.8959644E0,5.037907E0,1.0491686E0,8.038598E0,6.3795692E1,1.0785631E0,3.6483387E1,2.7312304E1,3.7973685E0,2.3514935E1],"tree_param":{"num_deleted":"0","num_feature":"5","num_nodes":"17","size_leaf_vector":"0"}},{"base_weights":[1.5257719E-2,9.3637854E-1,-6.57114E-1,1.0529064E0,2.3900369E-1,8.7089694E-1,-8.934265E-1,-7.88267E-1,8.825673E-1,1.497976E-1,9.50651E-1,-9.2336214E-1,2.779016E-1,-1.0467163E0,-7.209567E-1,8.849032E-1,-1.0291299E0],"categories":[],"categories_nodes":[],"categories_segments":[],"categories_sizes":[],"default_left":[true,true,true,false,true,true,true,false,false,false,false,true,false,false,true,false,false],"id":6,"left_children":[1,3,5,-1,7,9,11,-1,-1,-1,-1,13,-1,-1,15,-1,-1],"loss_changes":[6.2679573E1,3.2180061E0,2.1907064E1,0E0,5.5922723E0,3.374524E-1,2.0508842E0,0E0,0E0,0E0,0E0,4.9691772E-1,0E0,0E0,1.1894411E1,0E0,0E0],"parents":[2147483647,0,0,1,1,2,2,4,4,5,5,6,6,11,11,14,14],"right_children":[2,4,6,-1,8,10,12,-1,-1,-1,-1,14,-1,-1,16,-1,-1],"split_conditions":[1.77515E4,5.2005E3,4.29755E-2,3.1587192E-1,6.1095E3,1.27E-4,5.1619E4,-2.3648012E-1,2.647702E-1,4.4939283E-2,2.8519532E-1,4.7339E4,8.337048E-2,-3.140149E-1,5.06355E4,2.6547098E-1,-3.0873898E-1],"split_indices":[0,0,3,0,0,3,0,0,0,0,0,0,0,0,0,0,0],"split_type":[0,0,0,0,0,0,0,0,0,0,0,0,0,0,0,0,0],"sum_hessian":[9.921104E1,4.169627E1,5.751477E1,3.528972E1,6.4065485E0,7.343819E0,5.017095E1,2.3810368E0,4.0255117E0,1.0179775E0,6.3258414E0,4.9127106E1,1.0438446E0,2.7932503E1,2.1194603E1,3.1111684E0,1.8083435E1],"tree_param":{"num_deleted":"0","num_feature":"5","num_nodes":"17","size_leaf_vector":"0"}},{"base_weights":[1.8443547E-2,9.0163827E-1,-6.2049466E-1,1.0222328E0,2.1413273E-1,8.055499E-1,-8.552228E-1,-7.253985E-1,8.230287E-1,1.5072241E-1,8.99011E-1,-8.9005035E-1,2.3972064E-1,-1.0138713E0,-6.804037E-1,8.132256E-1,-9.916256E-1],"categories":[],"categories_nodes":[],"categories_segments":[],"categories_sizes":[],"default_left":[true,true,true,false,true,true,true,false,false,false,false,true,false,false,true,false,false],"id":7,"left_children":[1,3,5,-1,7,9,11,-1,-1,-1,-1,13,-1,-1,15,-1,-1],"loss_changes":[4.440697E1,2.5191097E0,1.5978683E1,0E0,4.1400285E0,2.9112244E-1,1.7275448E0,0E0,0E0,0E0,0E0,3.1462097E-1,0E0,0E0,8.898657E0,0E0,0E0],"parents":[2147483647,0,0,1,1,2,2,4,4,5,5,6,6,11,11,14,14],"right_children":[2,4,6,-1,8,10,12,-1,-1,-1,-1,14,-1,-1,16,-1,-1],"split_conditions":[1.77515E4,5.2005E3,4.29755E-2,3.0666983E-1,6.1095E3,8.9E1,5.1619E4,-2.1761955E-1,2.4690862E-1,4.5216724E-2,2.6970333E-1,4.7339E4,7.191619E-2,-3.041614E-1,5.06355E4,2.439677E-1,-2.974877E-1],"split_indices":[0,0,3,0,0,2,0,0,0,0,0,0,0,0,0,0,0],"split_type":[0,0,0,0,0,0,0,0,0,0,0,0,0,0,0,0,0],"sum_hessian":[7.6701546E1,3.202404E1,4.46775E1,2.6830809E1,5.193232E0,5.9708624E0,3.8706642E1,1.966922E0,3.2263103E0,1.0720824E0,4.8987803E0,3.7694786E1,1.0118548E0,2.1286505E1,1.6408281E1,2.5512419E0,1.3857039E1],"tree_param":{"num_deleted":"0","num_feature":"5","num_nodes":"17","size_leaf_vector":"0"}},{"base_weights":[2.2145031E-2,8.696622E-1,-5.841505E-1,9.954837E-1,1.9090293E-1,7.4146974E-1,-8.19229E-1,-6.678068E-1,7.6649034E-1,1.2968063E-1,8.453181E-1,-9.078413E-1,-4.1304365E-1,-8.55567E-1,5.8569103E-1],"categories":[],"categories_nodes":[],"categories_segments":[],"categories_sizes":[],"default_left":[true,true,true,false,true,true,true,false,false,false,false,false,true,false,false],"id":8,"left_children":[1,3,5,-1,7,9,11,-1,-1,-1,-1,-1,13,-1,-1],"loss_changes":[3.1544235E1,1.9954815E0,1.1766409E1,0E0,3.1014094E0,2.66407E-1,7.368603E-1,0E0,0E0,0E0,0E0,0E0,3.7569854E0,0E0,0E0],"parents":[2147483647,0,0,1,1,2,2,4,4,5,5,6,6,12,12],"right_children":[2,4,6,-1,8,10,12,-1,-1,-1,-1,-1,14,-1,-1],"split_conditions":[1.77515E4,5.2005E3,4.29755E-2,2.986451E-1,6.1095E3,8.9E1,1.3234115E0,-2.0034204E-1,2.299471E-1,3.890419E-2,2.5359544E-1,-2.723524E-1,4.7339E4,-2.5667012E-1,1.7570731E-1],"split_indices":[0,0,3,0,0,2,3,0,0,0,0,0,0,0,0],"split_type":[0,0,0,0,0,0,0,0,0,0,0,0,0,0,0],"sum_hessian":[5.9399864E1,2.4590858E1,3.4809002E1,2.0351656E1,4.2392035E0,4.918603E0,2.98904E1,1.6369082E0,2.6022954E0,1.0400763E0,3.878527E0,2.352353E1,6.3668723E0,4.5113254E0,1.8555468E0],"tree_param":{"num_deleted":"0","num_feature":"5","num_nodes":"15","size_leaf_vector":"0"}},{"base_weights":[2.7690701E-2,8.3822685E-1,-5.2541685E-1,9.700829E-1,1.6923825E-1,6.794575E-1,-7.490873E-1,-6.147891E-1,7.121668E-1,9.928911E-2,8.044681E-1,-9.588643E-1,-4.6029133E-1,6.9720435E-1,-9.255938E-1,2.1818973E-1,7.8757405E-1],"categories":[],"categories_nodes":[],"categories_segments":[],"categories_sizes":[],"default_left":[true,true,true,false,true,true,true,false,false,false,false,false,true,true,false,false,false],"id":9,"left_children":[1,3,5,-1,7,9,11,-1,-1,-1,-1,-1,13,15,-1,-1,-1],"loss_changes":[2.203885E1,1.5935354E0,8.3918705E0,0E0,2.350001E0,2.9031897E-1,1.0820837E0,0E0,0E0,0E0,0E0,0E0,7.3796444E0,8.04615E-3,0E0,0E0,0E0],"parents":[2147483647,0,0,1,1,2,2,4,4,5,5,6,6,12,12,13,13],"right_children":[2,4,6,-1,8,10,12,-1,-1,-1,-1,-1,14,16,-1,-1,-1],"split_conditions":[1.77515E4,5.2005E3,4.29755E-2,2.9102486E-1,6.1095E3,6.5859E4,4.7339E4,-1.8443674E-1,2.1365005E-1,2.9786734E-2,2.4134044E-1,-2.876593E-1,2.01925E4,9.655E2,-2.7767816E-1,6.545692E-2,2.3627223E-1],"split_indices":[0,0,3,0,0,1,0,0,0,0,0,0,2,2,0,0,0],"split_type":[0,0,0,0,0,0,0,0,0,0,0,0,0,0,0,0,0],"sum_hessian":[4.7177055E1,1.89264E1,2.8250656E1,1.543427E1,3.4921296E0,4.1042113E0,2.4146444E1,1.3746623E0,2.1174672E0,1.0456487E0,3.0585625E0,1.2642737E1,1.1503707E1,3.155538E0,8.348168E0,1.0427482E0,2.1127899E0],"tree_param":{"num_deleted":"0","num_feature":"5","num_nodes":"17","size_leaf_vector":"0"}},{"base_weights":[3.2571472E-2,9.440998E-1,-4.1060257E-1,6.3394964E-1,-6.0853094E-1,9.29199E-2,7.56696E-1,1.0592307E-1,-7.119664E-1,-5.660718E-1,6.331829E-1,-9.296296E-1,-4.1524518E-1,6.287594E-1,-8.893859E-1,1.8863472E-1,7.20803E-1],"categories":[],"categories_nodes":[],"categories_segments":[],"categories_sizes":[],"default_left":[true,false,true,true,true,false,false,true,true,false,false,false,true,true,false,false,false],"id":10,"left_children":[1,-1,3,5,7,-1,-1,9,11,-1,-1,-1,13,15,-1,-1,-1],"loss_changes":[1.5726996E1,0E0,5.8122067E0,2.3988032E-1,1.7437668E0,0E0,0E0,1.6784586E0,8.960123E-1,0E0,0E0,0E0,5.6117125E0,1.6903877E-2,0E0,0E0,0E0],"parents":[2147483647,0,0,2,2,3,3,4,4,7,7,8,8,12,12,13,13],"right_children":[2,-1,4,6,8,-1,-1,10,12,-1,-1,-1,14,16,-1,-1,-1],"split_conditions":[5.2005E3,2.8322995E-1,5.55885E-2,1.91E-4,1.77515E4,2.7875971E-2,2.270088E-1,6.1095E3,4.7339E4,-1.6982155E-1,1.8995488E-1,-2.788889E-1,2.01925E4,9.655E2,-2.6681578E-1,5.659042E-2,2.1624091E-1],"split_indices":[0,0,3,3,0,0,0,0,0,0,0,0,2,2,0,0,0],"split_type":[0,0,0,0,0,0,0,0,0,0,0,0,0,0,0,0,0],"sum_hessian":[3.6971905E1,1.172513E1,2.5246773E1,3.6709075E0,2.1575865E1,1.0037374E0,2.66717E0,2.7255785E0,1.8850286E1,1.1659542E0,1.5596243E0,9.643315E0,9.206972E0,2.7736356E0,6.4333363E0,1.0071509E0,1.7664846E0],"tree_param":{"num_deleted":"0","num_feature":"5","num_nodes":"17","size_leaf_vector":"0"}},{"base_weights":[3.7588865E-2,9.160639E-1,-3.7429297E-1,5.76265E-1,-5.7069385E-1,7.899085E-2,7.139676E-1,9.272723E-2,-6.7312485E-1,-4.756718E-1,5.72736E-1,-8.9811975E-1,-3.7023497E-1,5.675196E-1,-8.5066855E-1,1.6799514E-1,6.7161095E-1],"categories":[],"categories_nodes":[],"categories_segments":[],"categories_sizes":[],"default_left":[true,false,true,true,true,false,false,true,true,false,false,false,true,true,false,false,false],"id":11,"left_children":[1,-1,3,5,7,-1,-1,9,11,-1,-1,-1,13,15,-1,-1,-1],"loss_changes":[1.1280053E1,0E0,4.303297E0,2.2729874E-1,1.295517E0,0E0,0E0,1.1744021E0,7.469578E-1,0E0,0E0,0E0,4.2909403E0,3.1201005E-2,0E0,0E0,0E0],"parents":[2147483647,0,0,2,2,3,3,4,4,7,7,8,8,12,12,13,13],"right_children":[2,-1,4,6,8,-1,-1,10,12,-1,-1,-1,14,16,-1,-1,-1],"split_conditions":[5.2005E3,2.748192E-1,5.55885E-2,6.5859E4,1.77515E4,2.3697255E-2,2.1419029E-1,6.84E3,4.7339E4,-1.4270155E-1,1.7182082E-1,-2.6943594E-1,2.01925E4,5.423E3,-2.5520056E-1,5.0398543E-2,2.014833E-1],"split_indices":[0,0,3,1,0,0,0,0,0,0,0,0,2,1,0,0,0],"split_type":[0,0,0,0,0,0,0,0,0,0,0,0,0,0,0,0,0],"sum_hessian":[2.9227566E1,8.938706E0,2.028886E1,3.1429954E0,1.7145864E1,1.0228598E0,2.1201355E0,2.3058908E0,1.4839973E1,1.0598785E0,1.2460123E0,7.3873086E0,7.452665E0,2.4633012E0,4.9893637E0,1.0494007E0,1.4139004E0],"tree_param":{"num_deleted":"0","num_feature":"5","num_nodes":"17","size_leaf_vector":"0"}},{"base_weights":[4.3126322E-2,8.849171E-1,-3.3537242E-1,5.207246E-1,-5.290719E-1,6.776704E-2,6.617469E-1,8.377161E-2,-6.3144106E-1,-8.634166E-1,-3.2498872E-1,5.1128423E-1,-8.09052E-1,1.4503448E-1,6.1385393E-1],"categories":[],"categories_nodes":[],"categories_segments":[],"categories_sizes":[],"default_left":[true,false,true,true,true,false,false,false,true,false,true,true,false,false,false],"id":12,"left_children":[1,-1,3,5,7,-1,-1,-1,9,-1,11,13,-1,-1,-1],"loss_changes":[8.078857E0,0E0,3.1897113E0,1.9447565E-1,9.831104E-1,0E0,0E0,0E0,6.3092613E-1,0E0,3.2990978E0,3.2158494E-2,0E0,0E0,0E0],"parents":[2147483647,0,0,2,2,3,3,4,4,8,8,10,10,11,11],"right_children":[2,-1,4,6,8,-1,-1,-1,10,-1,12,14,-1,-1,-1],"split_conditions":[5.2005E3,2.6547512E-1,5.55885E-2,6.5859E4,1.77515E4,2.0330112E-2,1.9852409E-1,2.5131484E-2,4.7339E4,-2.59025E-1,2.01925E4,5.423E3,-2.4271561E-1,4.3510344E-2,1.8415618E-1],"split_indices":[0,0,3,1,0,0,0,0,0,0,2,1,0,0,0],"split_type":[0,0,0,0,0,0,0,0,0,0,0,0,0,0,0],"sum_hessian":[2.3424582E1,6.8506336E0,1.6573948E1,2.7465713E0,1.3827376E1,1.0035987E0,1.7429726E0,2.0051289E0,1.18222475E1,5.694339E0,6.127909E0,2.2260048E0,3.9019043E0,1.0151559E0,1.2108489E0],"tree_param":{"num_deleted":"0","num_feature":"5","num_nodes":"15","size_leaf_vector":"0"}},{"base_weights":[4.743118E-2,8.5004216E-1,-2.9275885E-1,4.698134E-1,-4.78452E-1,7.2422065E-2,6.0504913E-1,6.716031E-2,-5.883394E-1,-8.251316E-1,-2.8195664E-1,6.275928E-1,-6.8021905E-1,-8.210931E-1,-7.931062E-2],"categories":[],"categories_nodes":[],"categories_segments":[],"categories_sizes":[],"default_left":[true,false,true,true,true,false,false,false,true,false,true,false,true,false,false],"id":13,"left_children":[1,-1,3,5,7,-1,-1,-1,9,-1,11,-1,13,-1,-1],"loss_changes":[5.7809887E0,0E0,2.3451219E0,1.4087772E-1,7.911751E-1,0E0,0E0,0E0,5.318482E-1,0E0,2.641234E0,0E0,3.3538985E-1,0E0,0E0],"parents":[2147483647,0,0,2,2,3,3,4,4,8,8,10,10,12,12],"right_children":[2,-1,4,6,8,-1,-1,-1,10,-1,12,-1,14,-1,-1],"split_conditions":[5.2005E3,2.5501266E-1,5.55885E-2,2.3800001E-4,1.77515E4,2.172662E-2,1.8151474E-1,2.0148093E-2,4.7339E4,-2.4753949E-1,5.06355E4,1.8827786E-1,7.140105E-1,-2.4632794E-1,-2.3793187E-2],"split_indices":[0,0,3,3,0,0,0,0,0,0,0,0,3,0,0],"split_type":[0,0,0,0,0,0,0,0,0,0,0,0,0,0,0],"sum_hessian":[1.9261229E1,5.2875576E0,1.3973672E1,2.4367597E0,1.1536912E1,1.0085757E0,1.4281839E0,1.9992201E0,9.537692E0,4.424791E0,5.112901E0,1.381656E0,3.731245E0,2.725802E0,1.0054432E0],"tree_param":{"num_deleted":"0","num_feature":"5","num_nodes":"15","size_leaf_vector":"0"}},{"base_weights":[4.829606E-2,8.113161E-1,-2.5503096E-1,4.2422432E-1,-4.3164504E-1,7.365044E-2,5.5383766E-1,5.3815227E-2,-5.4726696E-1,-7.8342295E-1,-2.4873652E-1,4.3398488E-1,-7.250719E-1],"categories":[],"categories_nodes":[],"categories_segments":[],"categories_sizes":[],"default_left":[true,false,true,true,true,false,false,false,true,false,true,false,false],"id":14,"left_children":[1,-1,3,5,7,-1,-1,-1,9,-1,11,-1,-1],"loss_changes":[4.1758723E0,0E0,1.746449E0,1.04317546E-1,6.377876E-1,0E0,0E0,0E0,4.2854834E-1,0E0,2.0612812E0,0E0,0E0],"parents":[2147483647,0,0,2,2,3,3,4,4,8,8,10,10],"right_children":[2,-1,4,6,8,-1,-1,-1,10,-1,12,-1,-1],"split_conditions":[5.2005E3,2.4339484E-1,5.55885E-2,2.455E-4,1.77515E4,2.2095133E-2,1.661513E-1,1.6144568E-2,4.7339E4,-2.350269E-1,2.01925E4,1.3019547E-1,-2.1752158E-1],"split_indices":[0,0,3,3,0,0,0,0,0,0,2,0,0],"split_type":[0,0,0,0,0,0,0,0,0,0,0,0,0],"sum_hessian":[1.6148647E1,4.11717E0,1.2031477E1,2.193463E0,9.838014E0,1.0153662E0,1.178097E0,1.9952295E0,7.8427844E0,3.4719744E0,4.37081E0,1.8328024E0,2.5380075E0],"tree_param":{"num_deleted":"0","num_feature":"5","num_nodes":"13","size_leaf_vector":"0"}},{"base_weights":[4.7592174E-2,3.020574E-1,-7.3993665E-1,7.69127E-1,3.6236968E-2,-9.187856E-1,-1.13049366E-1,-4.347144E-1,7.6376367E-1,7.5091116E-2,-7.389552E-1,4.443657E-1,-3.241079E-1],"categories":[],"categories_nodes":[],"categories_segments":[],"categories_sizes":[],"default_left":[true,true,true,false,true,false,false,true,false,true,false,false,false],"id":15,"left_children":[1,3,5,-1,7,-1,-1,9,-1,11,-1,-1,-1],"loss_changes":[3.1704733E0,1.4402089E0,3.312757E-1,0E0,3.2735372E0,0E0,0E0,9.626608E-1,0E0,6.0007495E-1,0E0,0E0,0E0],"parents":[2147483647,0,0,1,1,2,2,4,4,7,7,9,9],"right_children":[2,4,6,-1,8,-1,-1,10,-1,12,-1,-1,-1],"split_conditions":[5.06355E4,5.2005E3,6.4982355E-1,2.3073812E-1,4.7339E4,-2.756357E-1,-3.3914812E-2,1.77515E4,2.291291E-1,1.391503E0,-2.2168657E-1,1.3330972E-1,-9.723237E-2],"split_indices":[0,0,3,0,0,0,0,0,0,3,0,0,0],"split_type":[0,0,0,0,0,0,0,0,0,0,0,0,0],"sum_hessian":[1.3705535E1,1.0824414E1,2.8811204E0,3.2392905E0,7.585124E0,1.8793243E0,1.0017962E0,4.84881E0,2.736314E0,2.093684E0,2.7551262E0,1.0288315E0,1.0648524E0],"tree_param":{"num_deleted":"0","num_feature":"5","num_nodes":"13","size_leaf_vector":"0"}},{"base_weights":[3.939075E-2,2.8747293E-1,-6.661555E-1,7.2433174E-1,3.6068395E-2,-8.4812397E-1,-1.02044374E-1,-3.9285713E-1,7.1242625E-1,6.9193594E-2,-6.927747E-1],"categories":[],"categories_nodes":[],"categories_segments":[],"categories_sizes":[],"default_left":[true,true,true,false,true,false,false,true,false,false,false],"id":16,"left_children":[1,3,5,-1,7,-1,-1,9,-1,-1,-1],"loss_changes":[2.3780742E0,1.065682E0,2.779932E-1,0E0,2.415722E0,0E0,0E0,7.615739E-1,0E0,0E0,0E0],"parents":[2147483647,0,0,1,1,2,2,4,4,7,7],"right_children":[2,4,6,-1,8,-1,-1,10,-1,-1,-1],"split_conditions":[5.06355E4,5.2005E3,6.47004E-1,2.1729954E-1,4.7339E4,-2.544372E-1,-3.0613312E-2,1.77515E4,2.1372788E-1,2.075808E-2,-2.0783243E-1],"split_indices":[0,0,3,0,0,0,0,0,0,0,0],"split_type":[0,0,0,0,0,0,0,0,0,0,0],"sum_hessian":[1.14923115E1,8.941041E0,2.5512707E0,2.5787964E0,6.3622446E0,1.5483434E0,1.0029272E0,4.1497545E0,2.21249E0,1.9361807E0,2.213574E0],"tree_param":{"num_deleted":"0","num_feature":"5","num_nodes":"11","size_leaf_vector":"0"}},{"base_weights":[3.0078491E-2,2.668263E-1,-5.963177E-1,6.780816E-1,3.251743E-2,-7.7640986E-1,-9.139503E-2,-3.4800047E-1,6.621055E-1,5.5601347E-2,-6.4611673E-1],"categories":[],"categories_nodes":[],"categories_segments":[],"categories_sizes":[],"default_left":[true,true,true,false,true,false,false,true,false,false,false],"id":17,"left_children":[1,3,5,-1,7,-1,-1,9,-1,-1,-1],"loss_changes":[1.7799823E0,8.088496E-1,2.2975612E-1,0E0,1.7980369E0,0E0,0E0,6.0551804E-1,0E0,0E0,0E0],"parents":[2147483647,0,0,1,1,2,2,4,4,7,7],"right_children":[2,4,6,-1,8,-1,-1,10,-1,-1,-1],"split_conditions":[5.06355E4,5.2005E3,6.374085E-1,2.0342448E-1,4.7339E4,-2.3292297E-1,-2.741851E-2,1.77515E4,1.9863166E-1,1.6680405E-2,-1.9383503E-1],"split_indices":[0,0,3,0,0,0,0,0,0,0,0],"split_type":[0,0,0,0,0,0,0,0,0,0,0],"sum_hessian":[9.929816E0,7.622794E0,2.307022E0,2.0792909E0,5.5435033E0,1.3041769E0,1.002845E0,3.7339756E0,1.8095276E0,1.9319351E0,1.8020407E0],"tree_param":{"num_deleted":"0","num_feature":"5","num_nodes":"11","size_leaf_vector":"0"}},{"base_weights":[2.193848E-2,6.3167065E-1,-1.8564239E-1,-3.2801458E-1,3.0388606E-1,-1.1713062E-1,-5.327703E-1,2.055929E-1,-3.288528E-1,-7.0792377E-1,-8.139998E-2],"categories":[],"categories_nodes":[],"categories_segments":[],"categories_sizes":[],"default_left":[true,false,true,true,false,true,true,false,false,false,false],"id":18,"left_children":[1,-1,3,5,-1,7,9,-1,-1,-1,-1],"loss_changes":[1.3491862E0,0E0,6.596136E-1,2.2710818E-1,0E0,3.8087797E-1,1.890418E-1,0E0,0E0,0E0,0E0],"parents":[2147483647,0,0,2,2,3,3,5,5,6,6],"right_children":[2,-1,4,6,-1,8,10,-1,-1,-1,-1],"split_conditions":[5.2005E3,1.8950121E-1,6.49705E4,5.06355E4,9.116582E-2,5.471935E-1,6.27463E-1,6.1677873E-2,-9.865584E-2,-2.1237715E-1,-2.4419995E-2],"split_indices":[0,0,1,0,0,3,3,0,0,0,0],"split_type":[0,0,0,0,0,0,0,0,0,0,0],"sum_hessian":[8.733219E0,1.6991769E0,7.0340424E0,5.7048173E0,1.3292251E0,3.584788E0,2.1200292E0,1.4315925E0,2.1531956E0,1.117858E0,1.0021712E0],"tree_param":{"num_deleted":"0","num_feature":"5","num_nodes":"11","size_leaf_vector":"0"}},{"base_weights":[1.8453158E-2,5.862887E-1,-1.6097352E-1,3.003561E-2,-4.7628927E-1,-2.9860964E-1,6.014342E-1,7.032546E-2,-5.9959376E-1],"categories":[],"categories_nodes":[],"categories_segments":[],"categories_sizes":[],"default_left":[true,false,true,true,false,true,false,false,false],"id":19,"left_children":[1,-1,3,5,-1,7,-1,-1,-1],"loss_changes":[1.0245312E0,0E0,4.7938496E-1,1.2592882E0,0E0,5.21694E-1,0E0,0E0,0E0],"parents":[2147483647,0,0,2,2,3,3,5,5],"right_children":[2,-1,4,6,-1,8,-1,-1,-1],"split_conditions":[5.2005E3,1.7588662E-1,5.06355E4,4.7339E4,-1.4288679E-1,1.77515E4,1.8043026E-1,2.1097638E-2,-1.7987813E-1],"split_indices":[0,0,0,0,0,0,0,0,0],"split_type":[0,0,0,0,0,0,0,0,0],"sum_hessian":[8.129467E0,1.4075129E0,6.721954E0,4.7495556E0,1.9723984E0,3.3183696E0,1.431186E0,1.8351992E0,1.4831705E0],"tree_param":{"num_deleted":"0","num_feature":"5","num_nodes":"9","size_leaf_vector":"0"}},{"base_weights":[2.2033863E-2,5.429065E-1,-1.4043255E-1,-3.4007502E-1,1.5163216E-1,3.701484E-2,-6.908412E-1,-3.7539244E-1,6.034907E-1,3.3551648E-1,-2.6619732E-1],"categories":[],"categories_nodes":[],"categories_segments":[],"categories_sizes":[],"default_left":[true,false,true,true,true,true,false,false,false,false,false],"id":20,"left_children":[1,-1,3,5,7,9,-1,-1,-1,-1,-1],"loss_changes":[7.7959627E-1,0E0,4.673001E-1,6.265289E-1,1.0806357E0,3.7339413E-1,0E0,0E0,0E0,0E0,0E0],"parents":[2147483647,0,0,2,2,3,3,4,4,5,5],"right_children":[2,-1,4,6,8,10,-1,-1,-1,-1,-1],"split_conditions":[5.2005E3,1.6287196E-1,1.54015E4,5.06355E4,4.7339E4,2.0119834E0,-2.0725237E-1,-1.1261774E-1,1.8104722E-1,1.0065495E-1,-7.98592E-2],"split_indices":[0,0,1,0,0,3,0,0,0,0,0],"split_type":[0,0,0,0,0,0,0,0,0,0,0],"sum_hessian":[7.311495E0,1.1815983E0,6.1298966E0,3.543402E0,2.5864947E0,2.1386878E0,1.404714E0,1.2720577E0,1.314437E0,1.0240282E0,1.1146597E0],"tree_param":{"num_deleted":"0","num_feature":"5","num_nodes":"11","size_leaf_vector":"0"}},{"base_weights":[2.390999E-2,5.0218225E-1,-1.264154E-1,-3.041886E-1,1.400385E-1,3.4095928E-2,-6.339897E-1,-3.273786E-1,5.558714E-1,2.551764E-1,-2.0482953E-1],"categories":[],"categories_nodes":[],"categories_segments":[],"categories_sizes":[],"default_left":[true,false,true,true,true,true,false,false,false,false,false],"id":21,"left_children":[1,-1,3,5,7,9,-1,-1,-1,-1,-1],"loss_changes":[6.057159E-1,0E0,3.5225242E-1,4.9424842E-1,8.2355475E-1,2.1285786E-1,0E0,0E0,0E0,0E0,0E0],"parents":[2147483647,0,0,2,2,3,3,4,4,5,5],"right_children":[2,-1,4,6,8,10,-1,-1,-1,-1,-1],"split_conditions":[5.2005E3,1.5065467E-1,1.54015E4,5.06355E4,4.7339E4,2.189239E0,-1.9019692E-1,-9.821358E-2,1.6676143E-1,7.655292E-2,-6.144886E-2],"split_indices":[0,0,1,0,0,3,0,0,0,0,0],"split_type":[0,0,0,0,0,0,0,0,0,0,0],"sum_hessian":[6.5418487E0,1.0046954E0,5.5371532E0,3.236321E0,2.3008325E0,2.0402284E0,1.1960925E0,1.1833752E0,1.1174573E0,1.0243597E0,1.0158687E0],"tree_param":{"num_deleted":"0","num_feature":"5","num_nodes":"11","size_leaf_vector":"0"}},{"base_weights":[2.5279775E-2,2.8877684E-1,-2.0197159E-1,4.4854912E-1,3.5575565E-2,-5.053701E-1,4.412393E-2,-4.050725E-1,5.2838683E-1],"categories":[],"categories_nodes":[],"categories_segments":[],"categories_sizes":[],"default_left":[true,true,true,false,false,false,true,false,false],"id":22,"left_children":[1,3,5,-1,-1,-1,7,-1,-1],"loss_changes":[4.7479236E-1,1.3098285E-1,3.4506068E-1,0E0,0E0,0E0,9.3329465E-1,0E0,0E0],"parents":[2147483647,0,0,1,1,2,2,6,6],"right_children":[2,4,6,-1,-1,-1,8,-1,-1],"split_conditions":[1.77515E4,1.507507E0,4.7339E4,1.3456474E-1,1.067267E-2,-1.5161103E-1,4.801E3,-1.21521756E-1,1.5851605E-1],"split_indices":[0,3,0,0,0,0,1,0,0],"split_type":[0,0,0,0,0,0,0,0,0],"sum_hessian":[5.9550295E0,2.6322308E0,3.3227985E0,1.140839E0,1.4913917E0,1.016301E0,2.3064976E0,1.2814072E0,1.0250903E0],"tree_param":{"num_deleted":"0","num_feature":"5","num_nodes":"9","size_leaf_vector":"0"}},{"base_weights":[2.4340464E-2,1.6933413E-1,-3.2708976E-1,3.3180648E-1,-1.5963743E-2,-1.662566E-1,1.7137252E-1],"categories":[],"categories_nodes":[],"categories_segments":[],"categories_sizes":[],"default_left":[true,true,false,false,true,false,false],"id":23,"left_children":[1,3,-1,-1,5,-1,-1],"loss_changes":[3.8614118E-1,1.6347499E-1,0E0,0E0,1.2446515E-1,0E0,0E0],"parents":[2147483647,0,0,1,1,4,4],"right_children":[2,4,-1,-1,6,-1,-1],"split_conditions":[5.06355E4,5.2415E3,-9.812693E-2,9.954195E-2,5.7413E4,-4.9876984E-2,5.141176E-2],"split_indices":[0,1,0,0,1,0,0],"split_type":[0,0,0,0,0,0,0],"sum_hessian":[5.491075E0,4.254078E0,1.2369974E0,1.8453648E0,2.4087129E0,1.3989283E0,1.0097846E0],"tree_param":{"num_deleted":"0","num_feature":"5","num_nodes":"7","size_leaf_vector":"0"}},{"base_weights":[1.8249156E-2,2.2742283E-1,-1.7015374E-1,3.8102144E-1,-2.319079E-3,-3.784642E-1,7.361912E-2],"categories":[],"categories_nodes":[],"categories_segments":[],"categories_sizes":[],"default_left":[true,true,true,false,false,false,false],"id":24,"left_children":[1,3,5,-1,-1,-1,-1],"loss_changes":[2.8816998E-1,1.2184404E-1,2.2603634E-1,0E0,0E0,0E0,0E0],"parents":[2147483647,0,0,1,1,2,2],"right_children":[2,4,6,-1,-1,-1,-1],"split_conditions":[1.77515E4,1.720089E0,4.801E3,1.14306435E-1,-6.957237E-4,-1.1353926E-1,2.2085737E-2],"split_indices":[0,3,1,0,0,0,0],"split_type":[0,0,0,0,0,0,0],"sum_hessian":[5.3303714E0,2.4278026E0,2.9025688E0,1.0603849E0,1.3674178E0,1.2671915E0,1.6353774E0],"tree_param":{"num_deleted":"0","num_feature":"5","num_nodes":"7","size_leaf_vector":"0"}},{"base_weights":[1.6850414E-2,1.9851223E-1,-1.4587247E-1,3.1374332E-1,1.3283288E-2,-3.2560256E-1,5.9958335E-2],"categories":[],"categories_nodes":[],"categories_segments":[],"categories_sizes":[],"default_left":[true,true,true,false,false,false,false],"id":25,"left_children":[1,3,5,-1,-1,-1,-1],"loss_changes":[2.1175511E-1,6.7238376E-2,1.6151965E-1,0E0,0E0,0E0,0E0],"parents":[2147483647,0,0,1,1,2,2],"right_children":[2,4,6,-1,-1,-1,-1],"split_conditions":[1.77515E4,1.940099E0,4.801E3,9.4123E-2,3.984987E-3,-9.768077E-2,1.79875E-2],"split_indices":[0,3,1,0,0,0,0],"split_type":[0,0,0,0,0,0,0],"sum_hessian":[5.183841E0,2.345459E0,2.838382E0,1.0182136E0,1.3272455E0,1.2046208E0,1.6337612E0],"tree_param":{"num_deleted":"0","num_feature":"5","num_nodes":"7","size_leaf_vector":"0"}},{"base_weights":[1.509566E-2,1.0912305E-1,-2.2410125E-1,2.7970254E-1,-6.1220672E-2,-1.7681704E-1,9.945533E-2],"categories":[],"categories_nodes":[],"categories_segments":[],"categories_sizes":[],"default_left":[true,true,false,false,true,false,false],"id":26,"left_children":[1,3,-1,-1,5,-1,-1],"loss_changes":[1.6123445E-1,1.6351332E-1,0E0,0E0,7.964275E-2,0E0,0E0],"parents":[2147483647,0,0,1,1,4,4],"right_children":[2,4,-1,-1,6,-1,-1],"split_conditions":[5.06355E4,5.2415E3,-6.723037E-2,8.391076E-2,5.1373E4,-5.3045116E-2,2.9836599E-2],"split_indices":[0,1,0,0,1,0,0],"split_type":[0,0,0,0,0,0,0],"sum_hessian":[5.0815206E0,4.0379944E0,1.043526E0,1.6968282E0,2.341166E0,1.3031638E0,1.0380023E0],"tree_param":{"num_deleted":"0","num_feature":"5","num_nodes":"7","size_leaf_vector":"0"}},{"base_weights":[9.873394E-3,1.1567148E-1,-1.7408822E-1,-9.929856E-2,3.342288E-1],"categories":[],"categories_nodes":[],"categories_segments":[],"categories_sizes":[],"default_left":[true,true,false,false,false],"id":27,"left_children":[1,3,-1,-1,-1],"loss_changes":[1.3652785E-1,2.3979609E-1,0E0,0E0,0E0],"parents":[2147483647,0,0,1,1],"right_children":[2,4,-1,-1,-1],"split_conditions":[4.1945E3,4.7339E4,-5.222647E-2,-2.9789569E-2,1.0026865E-1],"split_indices":[2,0,0,0,0],"split_type":[0,0,0,0,0],"sum_hessian":[4.980171E0,3.3974721E0,1.5826991E0,1.9878819E0,1.4095902E0],"tree_param":{"num_deleted":"0","num_feature":"5","num_nodes":"5","size_leaf_vector":"0"}},{"base_weights":[1.0752369E-2,1.8204747E-1,-1.4605074E-1,2.9634374E-1,-1.6621806E-2,-2.967999E-1,3.4876823E-2],"categories":[],"categories_nodes":[],"categories_segments":[],"categories_sizes":[],"default_left":[true,true,true,false,false,false,false],"id":28,"left_children":[1,3,5,-1,-1,-1,-1],"loss_changes":[1.8430884E-1,7.875764E-2,1.0910106E-1,0E0,0E0,0E0,0E0],"parents":[2147483647,0,0,1,1,2,2],"right_children":[2,4,6,-1,-1,-1,-1],"split_conditions":[1.77515E4,4.1945E3,4.801E3,8.890313E-2,-4.986542E-3,-8.9039974E-2,1.0463048E-2],"split_indices":[0,2,1,0,0,0,0],"split_type":[0,0,0,0,0,0,0],"sum_hessian":[4.8720407E0,2.2514806E0,2.62056E0,1.1171374E0,1.1343431E0,1.0801456E0,1.5404143E0],"tree_param":{"num_deleted":"0","num_feature":"5","num_nodes":"7","size_leaf_vector":"0"}},{"base_weights":[8.690013E-3,1.564467E-1,-1.2557636E-1,2.5681403E-1,-1.3972464E-2,-2.555858E-1,2.8530724E-2],"categories":[],"categories_nodes":[],"categories_segments":[],"categories_sizes":[],"default_left":[true,true,true,false,false,false,false],"id":29,"left_children":[1,3,5,-1,-1,-1,-1],"loss_changes":[1.344281E-1,5.83188E-2,7.913856E-2,0E0,0E0,0E0,0E0],"parents":[2147483647,0,0,1,1,2,2],"right_children":[2,4,6,-1,-1,-1,-1],"split_conditions":[1.77515E4,4.1945E3,4.801E3,7.704421E-2,-4.1917395E-3,-7.667574E-2,8.559218E-3],"split_indices":[0,2,1,0,0,0,0],"split_type":[0,0,0,0,0,0,0],"sum_hessian":[4.7857513E0,2.1997674E0,2.5859838E0,1.0653694E0,1.1343981E0,1.0454856E0,1.5404983E0],"tree_param":{"num_deleted":"0","num_feature":"5","num_nodes":"7","size_leaf_vector":"0"}},{"base_weights":[7.0744827E-3,-1.09185055E-1,1.777711E-1,-3.442304E-1,1.4420329E-1],"categories":[],"categories_nodes":[],"categories_segments":[],"categories_sizes":[],"default_left":[true,true,false,false,false],"id":30,"left_children":[1,3,-1,-1,-1],"loss_changes":[1.3296731E-1,2.8926155E-1,0E0,0E0,0E0],"parents":[2147483647,0,0,1,1],"right_children":[2,4,-1,-1,-1],"split_conditions":[4.7339E4,1.997E3,5.3331334E-2,-1.0326913E-1,4.3260988E-2],"split_indices":[0,2,0,0,0],"split_type":[0,0,0,0,0],"sum_hessian":[4.7221828E0,3.0233617E0,1.6988213E0,1.382465E0,1.6408967E0],"tree_param":{"num_deleted":"0","num_feature":"5","num_nodes":"5","size_leaf_vector":"0"}},{"base_weights":[3.349317E-3,-7.920553E-2,1.8529521E-1,1.2748447E-1,-1.790801E-1,-5.7937216E-2,-2.3954716E-1],"categories":[],"categories_nodes":[],"categories_segments":[],"categories_sizes":[],"default_left":[true,true,false,false,true,false,false],"id":31,"left_children":[1,3,-1,-1,5,-1,-1],"loss_changes":[9.885007E-2,1.1686721E-1,0E0,0E0,1.1665255E-2,0E0,0E0],"parents":[2147483647,0,0,1,1,4,4],"right_children":[2,4,-1,-1,6,-1,-1],"split_conditions":[4.098461E0,2.26972E-1,5.5588566E-2,3.8245343E-2,4.1945E3,-1.7381165E-2,-7.186415E-2],"split_indices":[3,3,0,0,2,0,0],"split_type":[0,0,0,0,0,0,0],"sum_hessian":[4.6039133E0,3.5553908E0,1.0485226E0,1.0682358E0,2.487155E0,1.4800689E0,1.0070862E0],"tree_param":{"num_deleted":"0","num_feature":"5","num_nodes":"7","size_leaf_vector":"0"}},{"base_weights":[3.1545113E-3,1.3345602E-1,-1.167445E-1,2.060137E-1,1.7752373E-4,-2.4084857E-1,3.5131775E-2],"categories":[],"categories_nodes":[],"categories_segments":[],"categories_sizes":[],"default_left":[true,true,true,false,false,false,false],"id":32,"left_children":[1,3,5,-1,-1,-1,-1],"loss_changes":[1.0209648E-1,3.0138426E-2,7.287392E-2,0E0,0E0,0E0,0E0],"parents":[2147483647,0,0,1,1,2,2],"right_children":[2,4,6,-1,-1,-1,-1],"split_conditions":[1.77515E4,2.1944914E0,4.801E3,6.1804112E-2,5.325712E-5,-7.2254576E-2,1.0539533E-2],"split_indices":[0,3,1,0,0,0,0],"split_type":[0,0,0,0,0,0,0],"sum_hessian":[4.5377393E0,2.1203532E0,2.4173863E0,1.0195599E0,1.1007934E0,1.007939E0,1.4094473E0],"tree_param":{"num_deleted":"0","num_feature":"5","num_nodes":"7","size_leaf_vector":"0"}},{"base_weights":[2.2552505E-3,-1.1028466E-1,1.6804568E-1,-3.0690795E-1,1.074481E-1],"categories":[],"categories_nodes":[],"categories_segments":[],"categories_sizes":[],"default_left":[true,true,false,false,false],"id":33,"left_children":[1,3,-1,-1,-1],"loss_changes":[1.20992295E-1,1.9886187E-1,0E0,0E0,0E0],"parents":[2147483647,0,0,1,1],"right_children":[2,4,-1,-1,-1],"split_conditions":[4.7339E4,1.997E3,5.041371E-2,-9.207239E-2,3.223443E-2],"split_indices":[0,2,0,0,0],"split_type":[0,0,0,0,0],"sum_hessian":[4.491436E0,2.874796E0,1.6166403E0,1.2954125E0,1.5793834E0],"tree_param":{"num_deleted":"0","num_feature":"5","num_nodes":"5","size_leaf_vector":"0"}},{"base_weights":[-5.007848E-4,9.533418E-2,-1.5221547E-1,-9.550729E-2,3.1123692E-1],"categories":[],"categories_nodes":[],"categories_segments":[],"categories_sizes":[],"default_left":[true,true,false,false,false],"id":34,"left_children":[1,3,-1,-1,-1],"loss_changes":[9.3024746E-2,1.9142121E-1,0E0,0E0,0E0],"parents":[2147483647,0,0,1,1],"right_children":[2,4,-1,-1,-1],"split_conditions":[4.1945E3,2.2695045E0,-4.5664642E-2,-2.8652187E-2,9.337108E-2],"split_indices":[2,3,0,0,0],"split_type":[0,0,0,0,0],"sum_hessian":[4.3999805E0,2.9243517E0,1.4756292E0,1.8482648E0,1.0760868E0],"tree_param":{"num_deleted":"0","num_feature":"5","num_nodes":"5","size_leaf_vector":"0"}},{"base_weights":[3.5940425E-3,-9.108546E-2,1.4185835E-1,-2.709059E-1,1.0155127E-1],"categories":[],"categories_nodes":[],"categories_segments":[],"categories_sizes":[],"default_left":[true,true,false,false,false],"id":35,"left_children":[1,3,-1,-1,-1],"loss_changes":[8.276012E-2,1.5829629E-1,0E0,0E0,0E0],"parents":[2147483647,0,0,1,1],"right_children":[2,4,-1,-1,-1],"split_conditions":[4.7339E4,1.997E3,4.2557508E-2,-8.1271775E-2,3.0465383E-2],"split_indices":[0,2,0,0,0],"split_type":[0,0,0,0,0],"sum_hessian":[4.3349605E0,2.7755582E0,1.5594019E0,1.22539E0,1.5501684E0],"tree_param":{"num_deleted":"0","num_feature":"5","num_nodes":"5","size_leaf_vector":"0"}},{"base_weights":[7.333662E-4,-1.0194222E-1,1.551295E-1,7.7435754E-2,-2.9788285E-1],"categories":[],"categories_nodes":[],"categories_segments":[],"categories_sizes":[],"default_left":[true,true,false,false,false],"id":36,"left_children":[1,3,-1,-1,-1],"loss_changes":[9.9266484E-2,1.5540102E-1,0E0,0E0,0E0],"parents":[2147483647,0,0,1,1],"right_children":[2,4,-1,-1,-1],"split_conditions":[1.2618E4,3.487E3,4.6538852E-2,2.3230728E-2,-8.936486E-2],"split_indices":[1,1,0,0,0],"split_type":[0,0,0,0,0],"sum_hessian":[4.264224E0,2.7651181E0,1.499106E0,1.7593156E0,1.0058025E0],"tree_param":{"num_deleted":"0","num_feature":"5","num_nodes":"5","size_leaf_vector":"0"}},{"base_weights":[-3.4328552E-3,1.2724409E-1,-1.2604052E-1,1.8316321E-1,7.2403993E-3,-2.0777775E-1,6.850684E-3],"categories":[],"categories_nodes":[],"categories_segments":[],"categories_sizes":[],"default_left":[true,true,true,false,false,false,false],"id":37,"left_children":[1,3,5,-1,-1,-1,-1],"loss_changes":[9.959581E-2,1.8953968E-2,3.610684E-2,0E0,0E0,0E0,0E0],"parents":[2147483647,0,0,1,1,2,2],"right_children":[2,4,6,-1,-1,-1,-1],"split_conditions":[1.77515E4,5.2245E3,7.724E3,5.4948967E-2,2.17212E-3,-6.2333327E-2,2.0552054E-3],"split_indices":[0,2,1,0,0,0,0],"split_type":[0,0,0,0,0,0,0],"sum_hessian":[4.2152E0,2.0221498E0,2.1930501E0,1.0203674E0,1.0017824E0,1.0089555E0,1.1840947E0],"tree_param":{"num_deleted":"0","num_feature":"5","num_nodes":"7","size_leaf_vector":"0"}},{"base_weights":[-3.0211252E-3,-9.7012624E-2,1.3706324E-1,8.994122E-2,-2.5790358E-1],"categories":[],"categories_nodes":[],"categories_segments":[],"categories_sizes":[],"default_left":[true,true,false,false,false],"id":38,"left_children":[1,3,-1,-1,-1],"loss_changes":[8.1497304E-2,1.3405026E-1,0E0,0E0,0E0],"parents":[2147483647,0,0,1,1],"right_children":[2,4,-1,-1,-1],"split_conditions":[4.7339E4,6.917E3,4.1118972E-2,2.6982367E-2,-7.7371076E-2],"split_indices":[0,1,0,0,0],"split_type":[0,0,0,0,0],"sum_hessian":[4.179752E0,2.68541E0,1.494342E0,1.4460698E0,1.2393401E0],"tree_param":{"num_deleted":"0","num_feature":"5","num_nodes":"5","size_leaf_vector":"0"}},{"base_weights":[-4.1681533E-3,9.6993916E-2,-1.5197544E-1,-9.192515E-2,2.3356403E-1],"categories":[],"categories_nodes":[],"categories_segments":[],"categories_sizes":[],"default_left":[true,true,false,false,false],"id":39,"left_children":[1,3,-1,-1,-1],"loss_changes":[9.127159E-2,1.1561757E-1,0E0,0E0,0E0],"parents":[2147483647,0,0,1,1],"right_children":[2,4,-1,-1,-1],"split_conditions":[4.1945E3,7.9614604E-1,-4.5592632E-2,-2.7577547E-2,7.0069216E-2],"split_indices":[2,3,0,0,0],"split_type":[0,0,0,0,0],"sum_hessian":[4.118271E0,2.649016E0,1.4692547E0,1.2486479E0,1.400368E0],"tree_param":{"num_deleted":"0","num_feature":"5","num_nodes":"5","size_leaf_vector":"0"}},{"base_weights":[-3.3911795E-3,1.1468094E-1,-1.1602977E-1,-1.6321921E-1,-1.2938439E-2],"categories":[],"categories_nodes":[],"categories_segments":[],"categories_sizes":[],"default_left":[true,false,true,false,false],"id":40,"left_children":[1,-1,3,-1,-1],"loss_changes":[8.0737054E-2,0E0,1.2929589E-2,0E0,0E0],"parents":[2147483647,0,0,2,2],"right_children":[2,-1,4,-1,-1],"split_conditions":[1.77515E4,3.440428E-2,1.9185E4,-4.8965767E-2,-3.8815318E-3],"split_indices":[0,0,1,0,0],"split_type":[0,0,0,0,0],"sum_hessian":[4.0701737E0,1.9783056E0,2.0918682E0,1.0349E0,1.0569682E0],"tree_param":{"num_deleted":"0","num_feature":"5","num_nodes":"5","size_leaf_vector":"0"}},{"base_weights":[-6.0385424E-3,-1.0144616E-1,1.3712196E-1,-2.471818E-1,6.369927E-2],"categories":[],"categories_nodes":[],"categories_segments":[],"categories_sizes":[],"default_left":[true,true,false,false,false],"id":41,"left_children":[1,3,-1,-1,-1],"loss_changes":[8.286099E-2,1.0248646E-1,0E0,0E0,0E0],"parents":[2147483647,0,0,1,1],"right_children":[2,4,-1,-1,-1],"split_conditions":[4.7339E4,1.997E3,4.113659E-2,-7.415454E-2,1.9109782E-2],"split_indices":[0,2,0,0,0],"split_type":[0,0,0,0,0],"sum_hessian":[4.048136E0,2.604068E0,1.4440684E0,1.1194427E0,1.4846252E0],"tree_param":{"num_deleted":"0","num_feature":"5","num_nodes":"5","size_leaf_vector":"0"}},{"base_weights":[-7.2515192E-3,-1.0562187E-1,1.4867386E-1,1.0024857E-1,-2.215509E-1],"categories":[],"categories_nodes":[],"categories_segments":[],"categories_sizes":[],"default_left":[true,true,false,false,false],"id":42,"left_children":[1,3,-1,-1,-1],"loss_changes":[9.229782E-2,1.0924068E-1,0E0,0E0,0E0],"parents":[2147483647,0,0,1,1],"right_children":[2,4,-1,-1,-1],"split_conditions":[1.2618E4,1.793E3,4.460216E-2,3.0074572E-2,-6.646527E-2],"split_indices":[1,1,0,0,0],"split_type":[0,0,0,0,0],"sum_hessian":[3.9936397E0,2.6465774E0,1.3470623E0,1.0021633E0,1.6444141E0],"tree_param":{"num_deleted":"0","num_feature":"5","num_nodes":"5","size_leaf_vector":"0"}},{"base_weights":[-3.5403178E-3,9.2125416E-2,-1.4002673E-1,-7.585683E-2,2.4855402E-1],"categories":[],"categories_nodes":[],"categories_segments":[],"categories_sizes":[],"default_left":[true,true,false,false,false],"id":43,"left_children":[1,3,-1,-1,-1],"loss_changes":[7.758418E-2,1.1123702E-1,0E0,0E0,0E0],"parents":[2147483647,0,0,1,1],"right_children":[2,4,-1,-1,-1],"split_conditions":[4.1945E3,4.7339E4,-4.200802E-2,-2.275705E-2,7.456621E-2],"split_indices":[2,0,0,0,0],"split_type":[0,0,0,0,0],"sum_hessian":[3.9539554E0,2.5156872E0,1.4382682E0,1.4614099E0,1.0542774E0],"tree_param":{"num_deleted":"0","num_feature":"5","num_nodes":"5","size_leaf_vector":"0"}},{"base_weights":[-2.3983273E-4,1.3326749E-1,-1.3277715E-1],"categories":[],"categories_nodes":[],"categories_segments":[],"categories_sizes":[],"default_left":[true,false,false],"id":44,"left_children":[1,-1,-1],"loss_changes":[1.04341574E-1,0E0,0E0],"parents":[2147483647,0,0],"right_children":[2,-1,-1],"split_conditions":[1.77515E4,3.9980248E-2,-3.9833147E-2],"split_indices":[0,0,0],"split_type":[0,0,0],"sum_hessian":[3.8967586E0,1.9385309E0,1.9582278E0],"tree_param":{"num_deleted":"0","num_feature":"5","num_nodes":"3","size_leaf_vector":"0"}},{"base_weights":[-1.19743934E-4,8.984449E-2,-1.2842701E-1,-6.7948915E-2,2.3317674E-1],"categories":[],"categories_nodes":[],"categories_segments":[],"categories_sizes":[],"default_left":[true,true,false,false,false],"id":45,"left_children":[1,3,-1,-1,-1],"loss_changes":[6.7758046E-2,9.390353E-2,0E0,0E0,0E0],"parents":[2147483647,0,0,1,1],"right_children":[2,4,-1,-1,-1],"split_conditions":[4.1945E3,4.7339E4,-3.8528107E-2,-2.0384675E-2,6.9953024E-2],"split_indices":[2,0,0,0,0],"split_type":[0,0,0,0,0],"sum_hessian":[3.8704212E0,2.451378E0,1.4190432E0,1.4171655E0,1.0342126E0],"tree_param":{"num_deleted":"0","num_feature":"5","num_nodes":"5","size_leaf_vector":"0"}},{"base_weights":[2.440994E-3,1.2739563E-1,-1.2507243E-1],"categories":[],"categories_nodes":[],"categories_segments":[],"categories_sizes":[],"default_left":[true,false,false],"id":46,"left_children":[1,-1,-1],"loss_changes":[9.273619E-2,0E0,0E0],"parents":[2147483647,0,0],"right_children":[2,-1,-1],"split_conditions":[1.77515E4,3.8218692E-2,-3.752173E-2],"split_indices":[0,0,0],"split_type":[0,0,0],"sum_hessian":[3.8202233E0,1.9299375E0,1.890286E0],"tree_param":{"num_deleted":"0","num_feature":"5","num_nodes":"3","size_leaf_vector":"0"}},{"base_weights":[1.890375E-3,-1.3585669E-1,9.2738375E-2,-8.172854E-2,2.5836658E-1],"categories":[],"categories_nodes":[],"categories_segments":[],"categories_sizes":[],"default_left":[true,false,true,false,false],"id":47,"left_children":[1,-1,3,-1,-1],"loss_changes":[7.2631076E-2,0E0,1.2182053E-1,0E0,0E0],"parents":[2147483647,0,0,2,2],"right_children":[2,-1,4,-1,-1],"split_conditions":[6.1095E3,-4.0757008E-2,7.9614604E-1,-2.4518562E-2,7.750998E-2],"split_indices":[0,0,3,0,0],"split_type":[0,0,0,0,0],"sum_hessian":[3.7971656E0,1.3121728E0,2.484993E0,1.4569E0,1.028093E0],"tree_param":{"num_deleted":"0","num_feature":"5","num_nodes":"5","size_leaf_vector":"0"}},{"base_weights":[4.145212E-3,1.1458753E-1,-1.0839494E-1],"categories":[],"categories_nodes":[],"categories_segments":[],"categories_sizes":[],"default_left":[true,false,false],"id":48,"left_children":[1,-1,-1],"loss_changes":[7.150949E-2,0E0,0E0],"parents":[2147483647,0,0],"right_children":[2,-1,-1],"split_conditions":[1.77515E4,3.437626E-2,-3.2518484E-2],"split_indices":[0,0,0],"split_type":[0,0,0],"sum_hessian":[3.7540312E0,1.8854929E0,1.8685383E0],"tree_param":{"num_deleted":"0","num_feature":"5","num_nodes":"3","size_leaf_vector":"0"}},{"base_weights":[3.3251243E-3,-8.605685E-2,1.436307E-1,-2.1938156E-1,7.082679E-2],"categories":[],"categories_nodes":[],"categories_segments":[],"categories_sizes":[],"default_left":[true,true,false,false,false],"id":49,"left_children":[1,3,-1,-1,-1],"loss_changes":[7.175034E-2,8.9125946E-2,0E0,0E0,0E0],"parents":[2147483647,0,0,1,1],"right_children":[2,4,-1,-1,-1],"split_conditions":[1.2618E4,6.1095E3,4.308921E-2,-6.581447E-2,2.1248039E-2],"split_indices":[1,0,0,0,0],"split_type":[0,0,0,0,0],"sum_hessian":[3.7357414E0,2.5181777E0,1.2175636E0,1.1459457E0,1.3722322E0],"tree_param":{"num_deleted":"0","num_feature":"5","num_nodes":"5","size_leaf_vector":"0"}},{"base_weights":[1.9335769E-3,1.129741E-1,-1.0835074E-1],"categories":[],"categories_nodes":[],"categories_segments":[],"categories_sizes":[],"default_left":[true,false,false],"id":50,"left_children":[1,-1,-1],"loss_changes":[6.974809E-2,0E0,0E0],"parents":[2147483647,0,0],"right_children":[2,-1,-1],"split_conditions":[1.77515E4,3.3892233E-2,-3.250522E-2],"split_indices":[0,0,0],"split_type":[0,0,0],"sum_hessian":[3.6959927E0,1.8295292E0,1.8664634E0],"tree_param":{"num_deleted":"0","num_feature":"5","num_nodes":"3","size_leaf_vector":"0"}},{"base_weights":[1.6731691E-3,8.815744E-2,-1.2216886E-1,-7.250203E-2,2.3035558E-1],"categories":[],"categories_nodes":[],"categories_segments":[],"categories_sizes":[],"default_left":[true,true,false,false,false],"id":51,"left_children":[1,3,-1,-1,-1],"loss_changes":[6.087543E-2,9.290053E-2,0E0,0E0,0E0],"parents":[2147483647,0,0,1,1],"right_children":[2,4,-1,-1,-1],"split_conditions":[4.1945E3,4.7339E4,-3.665066E-2,-2.175061E-2,6.9106676E-2],"split_indices":[2,0,0,0,0],"split_type":[0,0,0,0,0],"sum_hessian":[3.6782005E0,2.3354208E0,1.3427796E0,1.3266585E0,1.0087624E0],"tree_param":{"num_deleted":"0","num_feature":"5","num_nodes":"5","size_leaf_vector":"0"}},{"base_weights":[3.7297776E-3,1.10716715E-1,-1.0530641E-1],"categories":[],"categories_nodes":[],"categories_segments":[],"categories_sizes":[],"default_left":[true,false,false],"id":52,"left_children":[1,-1,-1],"loss_changes":[6.56748E-2,0E0,0E0],"parents":[2147483647,0,0],"right_children":[2,-1,-1],"split_conditions":[1.77515E4,3.3215016E-2,-3.1591926E-2],"split_indices":[0,0,0],"split_type":[0,0,0],"sum_hessian":[3.6303945E0,1.8246372E0,1.8057572E0],"tree_param":{"num_deleted":"0","num_feature":"5","num_nodes":"3","size_leaf_vector":"0"}},{"base_weights":[2.9905587E-3,-1.2519704E-1,8.9980766E-2,-6.208666E-2,2.1045338E-1],"categories":[],"categories_nodes":[],"categories_segments":[],"categories_sizes":[],"default_left":[true,false,true,false,false],"id":53,"left_children":[1,-1,3,-1,-1],"loss_changes":[6.271558E-2,0E0,7.408064E-2,0E0,0E0],"parents":[2147483647,0,0,2,2],"right_children":[2,-1,4,-1,-1],"split_conditions":[6.1095E3,-3.7559114E-2,1.438E3,-1.8625999E-2,6.313602E-2],"split_indices":[0,0,2,0,0],"split_type":[0,0,0,0,0],"sum_hessian":[3.6139317E0,1.2834495E0,2.330482E0,1.2443867E0,1.0860953E0],"tree_param":{"num_deleted":"0","num_feature":"5","num_nodes":"5","size_leaf_vector":"0"}},{"base_weights":[3.7600277E-3,-8.296661E-2,1.4019887E-1,6.898391E-2,-1.742093E-1],"categories":[],"categories_nodes":[],"categories_segments":[],"categories_sizes":[],"default_left":[true,true,false,false,false],"id":54,"left_children":[1,3,-1,-1,-1],"loss_changes":[6.586512E-2,5.957725E-2,0E0,0E0,0E0],"parents":[2147483647,0,0,1,1],"right_children":[2,4,-1,-1,-1],"split_conditions":[1.2618E4,1.9095E3,4.2059664E-2,2.0695174E-2,-5.226279E-2],"split_indices":[1,1,0,0,0],"split_type":[0,0,0,0,0],"sum_hessian":[3.58327E0,2.4303465E0,1.1529236E0,1.0033591E0,1.4269874E0],"tree_param":{"num_deleted":"0","num_feature":"5","num_nodes":"5","size_leaf_vector":"0"}},{"base_weights":[4.9366076E-3,1.0866233E-1,-9.8786004E-2],"categories":[],"categories_nodes":[],"categories_segments":[],"categories_sizes":[],"default_left":[true,false,false],"id":55,"left_children":[1,-1,-1],"loss_changes":[5.97843E-2,0E0,0E0],"parents":[2147483647,0,0],"right_children":[2,-1,-1],"split_conditions":[1.77515E4,3.25987E-2,-2.9635802E-2],"split_indices":[0,0,0],"split_type":[0,0,0],"sum_hessian":[3.5590985E0,1.7557107E0,1.8033878E0],"tree_param":{"num_deleted":"0","num_feature":"5","num_nodes":"3","size_leaf_vector":"0"}},{"base_weights":[4.1395067E-3,9.372753E-2,-1.24292694E-1,-5.0876267E-2,1.8782519E-1],"categories":[],"categories_nodes":[],"categories_segments":[],"categories_sizes":[],"default_left":[true,true,false,false,false],"id":56,"left_children":[1,3,-1,-1,-1],"loss_changes":[6.392741E-2,5.3732157E-2,0E0,0E0,0E0],"parents":[2147483647,0,0,1,1],"right_children":[2,4,-1,-1,-1],"split_conditions":[4.1945E3,7.9614604E-1,-3.728781E-2,-1.526288E-2,5.634756E-2],"split_indices":[2,3,0,0,0],"split_type":[0,0,0,0,0],"sum_hessian":[3.5435276E0,2.246616E0,1.2969116E0,1.0666994E0,1.1799166E0],"tree_param":{"num_deleted":"0","num_feature":"5","num_nodes":"5","size_leaf_vector":"0"}},{"base_weights":[3.8488011E-3,-8.3667055E-2,1.2744488E-1,8.181762E-2,-1.978208E-1],"categories":[],"categories_nodes":[],"categories_segments":[],"categories_sizes":[],"default_left":[true,true,false,false,false],"id":57,"left_children":[1,3,-1,-1,-1],"loss_changes":[5.9498087E-2,7.752146E-2,0E0,0E0,0E0],"parents":[2147483647,0,0,1,1],"right_children":[2,4,-1,-1,-1],"split_conditions":[4.7339E4,5.1595E3,3.8233466E-2,2.4545288E-2,-5.934624E-2],"split_indices":[0,1,0,0,0],"split_type":[0,0,0,0,0],"sum_hessian":[3.5148273E0,2.2469022E0,1.2679249E0,1.0328639E0,1.2140384E0],"tree_param":{"num_deleted":"0","num_feature":"5","num_nodes":"5","size_leaf_vector":"0"}},{"base_weights":[3.400323E-3,-7.826574E-2,1.3337578E-1,-1.890562E-1,5.5651166E-2],"categories":[],"categories_nodes":[],"categories_segments":[],"categories_sizes":[],"default_left":[true,true,false,false,false],"id":58,"left_children":[1,3,-1,-1,-1],"loss_changes":[5.793779E-2,6.0644943E-2,0E0,0E0,0E0],"parents":[2147483647,0,0,1,1],"right_children":[2,4,-1,-1,-1],"split_conditions":[1.2618E4,6.1095E3,4.0012736E-2,-5.6716863E-2,1.669535E-2],"split_indices":[1,0,0,0,0],"split_type":[0,0,0,0,0],"sum_hessian":[3.4748845E0,2.3783586E0,1.0965259E0,1.076237E0,1.3021216E0],"tree_param":{"num_deleted":"0","num_feature":"5","num_nodes":"5","size_leaf_vector":"0"}},{"base_weights":[2.3329665E-3,1.1554874E-1,-1.09473705E-1],"categories":[],"categories_nodes":[],"categories_segments":[],"categories_sizes":[],"default_left":[true,false,false],"id":59,"left_children":[1,-1,-1],"loss_changes":[6.89198E-2,0E0,0E0],"parents":[2147483647,0,0],"right_children":[2,-1,-1],"split_conditions":[1.77515E4,3.4664623E-2,-3.2842115E-2],"split_indices":[0,0,0],"split_type":[0,0,0],"sum_hessian":[3.4453316E0,1.6952486E0,1.750083E0],"tree_param":{"num_deleted":"0","num_feature":"5","num_nodes":"3","size_leaf_vector":"0"}},{"base_weights":[2.0732635E-3,-7.384935E-2,1.23322465E-1,-1.782528E-1,5.3353332E-2],"categories":[],"categories_nodes":[],"categories_segments":[],"categories_sizes":[],"default_left":[true,true,false,false,false],"id":60,"left_children":[1,3,-1,-1,-1],"loss_changes":[4.9868297E-2,5.3977672E-2,0E0,0E0,0E0],"parents":[2147483647,0,0,1,1],"right_children":[2,4,-1,-1,-1],"split_conditions":[1.2618E4,6.1095E3,3.699674E-2,-5.3475842E-2,1.6006E-2],"split_indices":[1,0,0,0,0],"split_type":[0,0,0,0,0],"sum_hessian":[3.4278705E0,2.3483396E0,1.0795307E0,1.0693369E0,1.2790028E0],"tree_param":{"num_deleted":"0","num_feature":"5","num_nodes":"5","size_leaf_vector":"0"}},{"base_weights":[1.302538E-3,1.1125934E-1,-1.05457686E-1],"categories":[],"categories_nodes":[],"categories_segments":[],"categories_sizes":[],"default_left":[true,false,false],"id":61,"left_children":[1,-1,-1],"loss_changes":[6.340891E-2,0E0,0E0],"parents":[2147483647,0,0],"right_children":[2,-1,-1],"split_conditions":[1.77515E4,3.3377804E-2,-3.1637307E-2],"split_indices":[0,0,0],"split_type":[0,0,0],"sum_hessian":[3.4020526E0,1.6551758E0,1.7468768E0],"tree_param":{"num_deleted":"0","num_feature":"5","num_nodes":"3","size_leaf_vector":"0"}},{"base_weights":[1.333289E-3,-8.122184E-2,1.1611989E-1,7.4395515E-2,-1.8912335E-1],"categories":[],"categories_nodes":[],"categories_segments":[],"categories_sizes":[],"default_left":[true,true,false,false,false],"id":62,"left_children":[1,3,-1,-1,-1],"loss_changes":[5.0993603E-2,6.678744E-2,0E0,0E0,0E0],"parents":[2147483647,0,0,1,1],"right_children":[2,4,-1,-1,-1],"split_conditions":[4.7339E4,5.1595E3,3.483597E-2,2.2318656E-2,-5.6737006E-2],"split_indices":[0,1,0,0,0],"split_type":[0,0,0,0,0],"sum_hessian":[3.385939E0,2.1395636E0,1.2463753E0,1.0032228E0,1.1363407E0],"tree_param":{"num_deleted":"0","num_feature":"5","num_nodes":"5","size_leaf_vector":"0"}},{"base_weights":[9.508072E-4,-7.884737E-2,1.22892596E-1,-1.5435854E-1,2.4428789E-2],"categories":[],"categories_nodes":[],"categories_segments":[],"categories_sizes":[],"default_left":[true,true,false,false,false],"id":63,"left_children":[1,3,-1,-1,-1],"loss_changes":[5.202881E-2,2.9031437E-2,0E0,0E0,0E0],"parents":[2147483647,0,0,1,1],"right_children":[2,4,-1,-1,-1],"split_conditions":[9.667E3,6.1095E3,3.686778E-2,-4.6307564E-2,7.328637E-3],"split_indices":[1,0,0,0,0],"split_type":[0,0,0,0,0],"sum_hessian":[3.3510652E0,2.2391663E0,1.111899E0,1.0077342E0,1.231432E0],"tree_param":{"num_deleted":"0","num_feature":"5","num_nodes":"5","size_leaf_vector":"0"}},{"base_weights":[1.5863408E-4,1.12116784E-1,-1.08196296E-1],"categories":[],"categories_nodes":[],"categories_segments":[],"categories_sizes":[],"default_left":[true,false,false],"id":64,"left_children":[1,-1,-1],"loss_changes":[6.467625E-2,0E0,0E0],"parents":[2147483647,0,0],"right_children":[2,-1,-1],"split_conditions":[1.77515E4,3.3635035E-2,-3.245889E-2],"split_indices":[0,0,0],"split_type":[0,0,0],"sum_hessian":[3.331439E0,1.6214015E0,1.7100374E0],"tree_param":{"num_deleted":"0","num_feature":"5","num_nodes":"3","size_leaf_vector":"0"}},{"base_weights":[4.0525393E-4,8.06725E-2,-1.1087512E-1,-5.0037697E-2,1.6764729E-1],"categories":[],"categories_nodes":[],"categories_segments":[],"categories_sizes":[],"default_left":[true,true,false,false,false],"id":65,"left_children":[1,3,-1,-1,-1],"loss_changes":[4.7488898E-2,4.3469414E-2,0E0,0E0,0E0],"parents":[2147483647,0,0,1,1],"right_children":[2,4,-1,-1,-1],"split_conditions":[4.1945E3,7.9614604E-1,-3.326254E-2,-1.501131E-2,5.0294187E-2],"split_indices":[2,3,0,0,0],"split_type":[0,0,0,0,0],"sum_hessian":[3.3152254E0,2.085786E0,1.2294391E0,1.0030452E0,1.0827409E0],"tree_param":{"num_deleted":"0","num_feature":"5","num_nodes":"5","size_leaf_vector":"0"}},{"base_weights":[8.2221907E-4,-7.6903895E-2,1.085572E-1,-1.6568945E-1,4.586882E-2],"categories":[],"categories_nodes":[],"categories_segments":[],"categories_sizes":[],"default_left":[true,true,false,false,false],"id":66,"left_children":[1,3,-1,-1,-1],"loss_changes":[4.4297878E-2,4.1164577E-2,0E0,0E0,0E0],"parents":[2147483647,0,0,1,1],"right_children":[2,4,-1,-1,-1],"split_conditions":[4.7339E4,2.715E3,3.2567162E-2,-4.970684E-2,1.3760647E-2],"split_indices":[0,2,0,0,0],"split_type":[0,0,0,0,0],"sum_hessian":[3.29307E0,2.0791957E0,1.2138743E0,1.0037508E0,1.075445E0],"tree_param":{"num_deleted":"0","num_feature":"5","num_nodes":"5","size_leaf_vector":"0"}},{"base_weights":[-2.6279208E-4,9.745888E-2,-9.595489E-2],"categories":[],"categories_nodes":[],"categories_segments":[],"categories_sizes":[],"default_left":[true,false,false],"id":67,"left_children":[1,-1,-1],"loss_changes":[4.92524E-2,0E0,0E0],"parents":[2147483647,0,0],"right_children":[2,-1,-1],"split_conditions":[1.77515E4,2.9237663E-2,-2.8786467E-2],"split_indices":[0,0,0],"split_type":[0,0,0],"sum_hessian":[3.2669153E0,1.6071824E0,1.6597329E0],"tree_param":{"num_deleted":"0","num_feature":"5","num_nodes":"3","size_leaf_vector":"0"}},{"base_weights":[-6.1542116E-5,-8.023257E-2,1.2403306E-1,-1.4034872E-1,1.3588832E-2],"categories":[],"categories_nodes":[],"categories_segments":[],"categories_sizes":[],"default_left":[true,true,false,false,false],"id":68,"left_children":[1,3,-1,-1,-1],"loss_changes":[5.2279964E-2,1.9910475E-2,0E0,0E0,0E0],"parents":[2147483647,0,0,1,1],"right_children":[2,4,-1,-1,-1],"split_conditions":[9.667E3,6.84E3,3.720992E-2,-4.2104617E-2,4.07665E-3],"split_indices":[1,0,0,0,0],"split_type":[0,0,0,0,0],"sum_hessian":[3.2546341E0,2.1919723E0,1.062662E0,1.0337088E0,1.1582634E0],"tree_param":{"num_deleted":"0","num_feature":"5","num_nodes":"5","size_leaf_vector":"0"}},{"base_weights":[-2.4714816E-4,9.268227E-2,-9.052915E-2],"categories":[],"categories_nodes":[],"categories_segments":[],"categories_sizes":[],"default_left":[true,false,false],"id":69,"left_children":[1,-1,-1],"loss_changes":[4.394131E-2,0E0,0E0],"parents":[2147483647,0,0],"right_children":[2,-1,-1],"split_conditions":[1.77515E4,2.7804682E-2,-2.7158746E-2],"split_indices":[0,0,0],"split_type":[0,0,0],"sum_hessian":[3.2373638E0,1.5821908E0,1.6551731E0],"tree_param":{"num_deleted":"0","num_feature":"5","num_nodes":"3","size_leaf_vector":"0"}},{"base_weights":[-8.8348015E-6,-8.27361E-2,1.1320773E-1],"categories":[],"categories_nodes":[],"categories_segments":[],"categories_sizes":[],"default_left":[true,false,false],"id":70,"left_children":[1,-1,-1],"loss_changes":[4.895024E-2,0E0,0E0],"parents":[2147483647,0,0],"right_children":[2,-1,-1],"split_conditions":[4.7339E4,-2.482083E-2,3.396232E-2],"split_indices":[0,0,0],"split_type":[0,0,0],"sum_hessian":[3.2262938E0,2.0197134E0,1.2065804E0],"tree_param":{"num_deleted":"0","num_feature":"5","num_nodes":"3","size_leaf_vector":"0"}},{"base_weights":[2.1912933E-3,-7.0151694E-2,1.1429937E-1,1.8574115E-2,-1.1979974E-1],"categories":[],"categories_nodes":[],"categories_segments":[],"categories_sizes":[],"default_left":[true,true,false,false,false],"id":71,"left_children":[1,3,-1,-1,-1],"loss_changes":[4.217411E-2,1.6230462E-2,0E0,0E0,0E0],"parents":[2147483647,0,0,1,1],"right_children":[2,4,-1,-1,-1],"split_conditions":[9.667E3,1.94E3,3.4289815E-2,5.5722347E-3,-3.5939924E-2],"split_indices":[1,1,0,0,0],"split_type":[0,0,0,0,0],"sum_hessian":[3.2114468E0,2.1793613E0,1.0320855E0,1.0065122E0,1.172849E0],"tree_param":{"num_deleted":"0","num_feature":"5","num_nodes":"5","size_leaf_vector":"0"}},{"base_weights":[2.4868774E-3,9.642559E-2,-9.037899E-2],"categories":[],"categories_nodes":[],"categories_segments":[],"categories_sizes":[],"default_left":[true,false,false],"id":72,"left_children":[1,-1,-1],"loss_changes":[4.5361772E-2,0E0,0E0],"parents":[2147483647,0,0],"right_children":[2,-1,-1],"split_conditions":[1.77515E4,2.8927678E-2,-2.7113698E-2],"split_indices":[0,0,0],"split_type":[0,0,0],"sum_hessian":[3.2008462E0,1.5721759E0,1.6286703E0],"tree_param":{"num_deleted":"0","num_feature":"5","num_nodes":"3","size_leaf_vector":"0"}},{"base_weights":[2.1903173E-3,8.157331E-2,-1.0606328E-1],"categories":[],"categories_nodes":[],"categories_segments":[],"categories_sizes":[],"default_left":[true,false,false],"id":73,"left_children":[1,-1,-1],"loss_changes":[4.4652347E-2,0E0,0E0],"parents":[2147483647,0,0],"right_children":[2,-1,-1],"split_conditions":[4.1945E3,2.4471993E-2,-3.1818986E-2],"split_indices":[2,0,0],"split_type":[0,0,0],"sum_hessian":[3.1892633E0,1.9821802E0,1.2070832E0],"tree_param":{"num_deleted":"0","num_feature":"5","num_nodes":"3","size_leaf_vector":"0"}},{"base_weights":[-2.2094848E-4,-7.640116E-2,1.04944766E-1],"categories":[],"categories_nodes":[],"categories_segments":[],"categories_sizes":[],"default_left":[true,false,false],"id":74,"left_children":[1,-1,-1],"loss_changes":[4.1470844E-2,0E0,0E0],"parents":[2147483647,0,0],"right_children":[2,-1,-1],"split_conditions":[4.7339E4,-2.2920348E-2,3.148343E-2],"split_indices":[0,0,0],"split_type":[0,0,0],"sum_hessian":[3.175592E0,2.000199E0,1.1753927E0],"tree_param":{"num_deleted":"0","num_feature":"5","num_nodes":"3","size_leaf_vector":"0"}},{"base_weights":[1.9259825E-3,9.791646E-2,-9.341538E-2],"categories":[],"categories_nodes":[],"categories_segments":[],"categories_sizes":[],"default_left":[true,false,false],"id":75,"left_children":[1,-1,-1],"loss_changes":[4.7243875E-2,0E0,0E0],"parents":[2147483647,0,0],"right_children":[2,-1,-1],"split_conditions":[1.77515E4,2.937494E-2,-2.8024616E-2],"split_indices":[0,0,0],"split_type":[0,0,0],"sum_hessian":[3.1627555E0,1.562554E0,1.6002015E0],"tree_param":{"num_deleted":"0","num_feature":"5","num_nodes":"3","size_leaf_vector":"0"}},{"base_weights":[1.687004E-3,-1.0284321E-1,7.5163916E-2,-3.703784E-2,1.5035595E-1],"categories":[],"categories_nodes":[],"categories_segments":[],"categories_sizes":[],"default_left":[true,false,true,false,false],"id":76,"left_children":[1,-1,3,-1,-1],"loss_changes":[3.9611485E-2,0E0,3.1007737E-2,0E0,0E0],"parents":[2147483647,0,0,2,2],"right_children":[2,-1,4,-1,-1],"split_conditions":[6.1095E3,-3.0852964E-2,4.801E3,-1.1111352E-2,4.5106787E-2],"split_indices":[0,0,1,0,0],"split_type":[0,0,0,0,0],"sum_hessian":[3.150921E0,1.1356492E0,2.015272E0,1.0122352E0,1.0030367E0],"tree_param":{"num_deleted":"0","num_feature":"5","num_nodes":"5","size_leaf_vector":"0"}},{"base_weights":[1.997062E-3,9.163849E-2,-8.674004E-2],"categories":[],"categories_nodes":[],"categories_segments":[],"categories_sizes":[],"default_left":[true,false,false],"id":77,"left_children":[1,-1,-1],"loss_changes":[4.08435E-2,0E0,0E0],"parents":[2147483647,0,0],"right_children":[2,-1,-1],"split_conditions":[1.77515E4,2.7491549E-2,-2.6022013E-2],"split_indices":[0,0,0],"split_type":[0,0,0],"sum_hessian":[3.135356E0,1.543465E0,1.5918909E0],"tree_param":{"num_deleted":"0","num_feature":"5","num_nodes":"3","size_leaf_vector":"0"}},{"base_weights":[1.7670923E-3,-7.967561E-2,1.1255532E-1],"categories":[],"categories_nodes":[],"categories_segments":[],"categories_sizes":[],"default_left":[true,false,false],"id":78,"left_children":[1,-1,-1],"loss_changes":[4.6186753E-2,0E0,0E0],"parents":[2147483647,0,0],"right_children":[2,-1,-1],"split_conditions":[4.7339E4,-2.3902683E-2,3.3766598E-2],"split_indices":[0,0,0],"split_type":[0,0,0],"sum_hessian":[3.124935E0,1.9628403E0,1.1620946E0],"tree_param":{"num_deleted":"0","num_feature":"5","num_nodes":"3","size_leaf_vector":"0"}},{"base_weights":[3.669573E-3,8.949092E-2,-8.271325E-2],"categories":[],"categories_nodes":[],"categories_segments":[],"categories_sizes":[],"default_left":[true,false,false],"id":79,"left_children":[1,-1,-1],"loss_changes":[3.7878416E-2,0E0,0E0],"parents":[2147483647,0,0],"right_children":[2,-1,-1],"split_conditions":[1.77515E4,2.6847277E-2,-2.4813974E-2],"split_indices":[0,0,0],"split_type":[0,0,0],"sum_hessian":[3.1109297E0,1.5424875E0,1.5684422E0],"tree_param":{"num_deleted":"0","num_feature":"5","num_nodes":"3","size_leaf_vector":"0"}},{"base_weights":[3.0813839E-3,-7.4892096E-2,1.0788565E-1],"categories":[],"categories_nodes":[],"categories_segments":[],"categories_sizes":[],"default_left":[true,false,false],"id":80,"left_children":[1,-1,-1],"loss_changes":[4.1595303E-2,0E0,0E0],"parents":[2147483647,0,0],"right_children":[2,-1,-1],"split_conditions":[4.7339E4,-2.246763E-2,3.23657E-2],"split_indices":[0,0,0],"split_type":[0,0,0],"sum_hessian":[3.101286E0,1.9419223E0,1.1593637E0],"tree_param":{"num_deleted":"0","num_feature":"5","num_nodes":"3","size_leaf_vector":"0"}},{"base_weights":[4.61922E-3,8.688064E-2,-7.926741E-2],"categories":[],"categories_nodes":[],"categories_segments":[],"categories_sizes":[],"default_left":[true,false,false],"id":81,"left_children":[1,-1,-1],"loss_changes":[3.5100266E-2,0E0,0E0],"parents":[2147483647,0,0],"right_children":[2,-1,-1],"split_conditions":[1.77515E4,2.6064193E-2,-2.3780225E-2],"split_indices":[0,0,0],"split_type":[0,0,0],"sum_hessian":[3.088532E0,1.5413516E0,1.5471805E0],"tree_param":{"num_deleted":"0","num_feature":"5","num_nodes":"3","size_leaf_vector":"0"}},{"base_weights":[3.8058097E-3,-1.0450753E-1,8.112034E-2],"categories":[],"categories_nodes":[],"categories_segments":[],"categories_sizes":[],"default_left":[true,false,false],"id":82,"left_children":[1,-1,-1],"loss_changes":[4.2641073E-2,0E0,0E0],"parents":[2147483647,0,0],"right_children":[2,-1,-1],"split_conditions":[6.1095E3,-3.135226E-2,2.4336103E-2],"split_indices":[0,0,0],"split_type":[0,0,0],"sum_hessian":[3.0796025E0,1.1361712E0,1.9434314E0],"tree_param":{"num_deleted":"0","num_feature":"5","num_nodes":"3","size_leaf_vector":"0"}},{"base_weights":[9.526479E-4,7.230269E-2,-9.435469E-2],"categories":[],"categories_nodes":[],"categories_segments":[],"categories_sizes":[],"default_left":[true,false,false],"id":83,"left_children":[1,-1,-1],"loss_changes":[3.448696E-2,0E0,0E0],"parents":[2147483647,0,0],"right_children":[2,-1,-1],"split_conditions":[4.1945E3,2.1690808E-2,-2.8306408E-2],"split_indices":[2,0,0],"split_type":[0,0,0],"sum_hessian":[3.068253E0,1.8926955E0,1.1755574E0],"tree_param":{"num_deleted":"0","num_feature":"5","num_nodes":"3","size_leaf_vector":"0"}},{"base_weights":[-9.6065947E-4,9.343841E-2,-8.695301E-2],"categories":[],"categories_nodes":[],"categories_segments":[],"categories_sizes":[],"default_left":[true,false,false],"id":84,"left_children":[1,-1,-1],"loss_changes":[4.1059427E-2,0E0,0E0],"parents":[2147483647,0,0],"right_children":[2,-1,-1],"split_conditions":[3.692E3,2.8031524E-2,-2.6085904E-2],"split_indices":[1,0,0],"split_type":[0,0,0],"sum_hessian":[3.0571952E0,1.4160835E0,1.6411116E0],"tree_param":{"num_deleted":"0","num_feature":"5","num_nodes":"3","size_leaf_vector":"0"}},{"base_weights":[-1.826415E-4,8.375443E-2,-8.3006494E-2],"categories":[],"categories_nodes":[],"categories_segments":[],"categories_sizes":[],"default_left":[true,false,false],"id":85,"left_children":[1,-1,-1],"loss_changes":[3.510083E-2,0E0,0E0],"parents":[2147483647,0,0],"right_children":[2,-1,-1],"split_conditions":[1.77515E4,2.5126329E-2,-2.4901949E-2],"split_indices":[0,0,0],"split_type":[0,0,0],"sum_hessian":[3.0490077E0,1.5087467E0,1.5402609E0],"tree_param":{"num_deleted":"0","num_feature":"5","num_nodes":"3","size_leaf_vector":"0"}},{"base_weights":[-6.0415423E-5,-7.5023405E-2,1.00864135E-1],"categories":[],"categories_nodes":[],"categories_segments":[],"categories_sizes":[],"default_left":[true,false,false],"id":86,"left_children":[1,-1,-1],"loss_changes":[3.8134456E-2,0E0,0E0],"parents":[2147483647,0,0],"right_children":[2,-1,-1],"split_conditions":[4.7339E4,-2.2507023E-2,3.0259242E-2],"split_indices":[0,0,0],"split_type":[0,0,0],"sum_hessian":[3.0402954E0,1.8917861E0,1.1485094E0],"tree_param":{"num_deleted":"0","num_feature":"5","num_nodes":"3","size_leaf_vector":"0"}},{"base_weights":[1.902321E-3,8.2203254E-2,-7.8760676E-2],"categories":[],"categories_nodes":[],"categories_segments":[],"categories_sizes":[],"default_left":[true,false,false],"id":87,"left_children":[1,-1,-1],"loss_changes":[3.2568496E-2,0E0,0E0],"parents":[2147483647,0,0],"right_children":[2,-1,-1],"split_conditions":[1.77515E4,2.4660977E-2,-2.3628203E-2],"split_indices":[0,0,0],"split_type":[0,0,0],"sum_hessian":[3.028539E0,1.5081066E0,1.5204324E0],"tree_param":{"num_deleted":"0","num_feature":"5","num_nodes":"3","size_leaf_vector":"0"}},{"base_weights":[1.5985137E-3,-1.0322227E-1,7.76288E-2],"categories":[],"categories_nodes":[],"categories_segments":[],"categories_sizes":[],"default_left":[true,false,false],"id":88,"left_children":[1,-1,-1],"loss_changes":[4.0054116E-2,0E0,0E0],"parents":[2147483647,0,0],"right_children":[2,-1,-1],"split_conditions":[6.1095E3,-3.0966682E-2,2.3288641E-2],"split_indices":[0,0,0],"split_type":[0,0,0],"sum_hessian":[3.0204377E0,1.1194446E0,1.900993E0],"tree_param":{"num_deleted":"0","num_feature":"5","num_nodes":"3","size_leaf_vector":"0"}},{"base_weights":[-7.9059653E-4,7.0517264E-2,-9.437192E-2],"categories":[],"categories_nodes":[],"categories_segments":[],"categories_sizes":[],"default_left":[true,false,false],"id":89,"left_children":[1,-1,-1],"loss_changes":[3.3412065E-2,0E0,0E0],"parents":[2147483647,0,0],"right_children":[2,-1,-1],"split_conditions":[4.1945E3,2.115518E-2,-2.8311579E-2],"split_indices":[2,0,0],"split_type":[0,0,0],"sum_hessian":[3.0097225E0,1.8480161E0,1.1617064E0],"tree_param":{"num_deleted":"0","num_feature":"5","num_nodes":"3","size_leaf_vector":"0"}},{"base_weights":[-2.347903E-3,8.289999E-2,-8.557122E-2],"categories":[],"categories_nodes":[],"categories_segments":[],"categories_sizes":[],"default_left":[true,false,false],"id":90,"left_children":[1,-1,-1],"loss_changes":[3.5464704E-2,0E0,0E0],"parents":[2147483647,0,0],"right_children":[2,-1,-1],"split_conditions":[1.77515E4,2.4869997E-2,-2.5671368E-2],"split_indices":[0,0,0],"split_type":[0,0,0],"sum_hessian":[2.998929E0,1.4833641E0,1.5155648E0],"tree_param":{"num_deleted":"0","num_feature":"5","num_nodes":"3","size_leaf_vector":"0"}},{"base_weights":[-1.8363341E-3,-7.339042E-2,9.477348E-2],"categories":[],"categories_nodes":[],"categories_segments":[],"categories_sizes":[],"default_left":[true,false,false],"id":91,"left_children":[1,-1,-1],"loss_changes":[3.4540035E-2,0E0,0E0],"parents":[2147483647,0,0],"right_children":[2,-1,-1],"split_conditions":[4.7339E4,-2.2017125E-2,2.8432045E-2],"split_indices":[0,0,0],"split_type":[0,0,0],"sum_hessian":[2.9903457E0,1.8560234E0,1.1343223E0],"tree_param":{"num_deleted":"0","num_feature":"5","num_nodes":"3","size_leaf_vector":"0"}},{"base_weights":[3.3945753E-4,8.122074E-2,-8.021956E-2],"categories":[],"categories_nodes":[],"categories_segments":[],"categories_sizes":[],"default_left":[true,false,false],"id":92,"left_children":[1,-1,-1],"loss_changes":[3.2444816E-2,0E0,0E0],"parents":[2147483647,0,0],"right_children":[2,-1,-1],"split_conditions":[1.77515E4,2.4366222E-2,-2.4065869E-2],"split_indices":[0,0,0],"split_type":[0,0,0],"sum_hessian":[2.9795046E0,1.4826796E0,1.4968249E0],"tree_param":{"num_deleted":"0","num_feature":"5","num_nodes":"3","size_leaf_vector":"0"}},{"base_weights":[3.2339845E-4,-9.857053E-2,7.302812E-2],"categories":[],"categories_nodes":[],"categories_segments":[],"categories_sizes":[],"default_left":[true,false,false],"id":93,"left_children":[1,-1,-1],"loss_changes":[3.5754725E-2,0E0,0E0],"parents":[2147483647,0,0],"right_children":[2,-1,-1],"split_conditions":[6.1095E3,-2.957116E-2,2.1908436E-2],"split_indices":[0,0,0],"split_type":[0,0,0],"sum_hessian":[2.971639E0,1.1083208E0,1.863318E0],"tree_param":{"num_deleted":"0","num_feature":"5","num_nodes":"3","size_leaf_vector":"0"}},{"base_weights":[-1.7074929E-3,8.024069E-2,-7.6249026E-2],"categories":[],"categories_nodes":[],"categories_segments":[],"categories_sizes":[],"default_left":[true,false,false],"id":94,"left_children":[1,-1,-1],"loss_changes":[3.0319804E-2,0E0,0E0],"parents":[2147483647,0,0],"right_children":[2,-1,-1],"split_conditions":[3.692E3,2.4072208E-2,-2.287471E-2],"split_indices":[1,0,0],"split_type":[0,0,0],"sum_hessian":[2.9619153E0,1.3744453E0,1.58747E0],"tree_param":{"num_deleted":"0","num_feature":"5","num_nodes":"3","size_leaf_vector":"0"}},{"base_weights":[-8.873169E-4,6.9618024E-2,-9.2656635E-2],"categories":[],"categories_nodes":[],"categories_segments":[],"categories_sizes":[],"default_left":[true,false,false],"id":95,"left_children":[1,-1,-1],"loss_changes":[3.2048274E-2,0E0,0E0],"parents":[2147483647,0,0],"right_children":[2,-1,-1],"split_conditions":[4.1945E3,2.0885408E-2,-2.7796991E-2],"split_indices":[2,0,0],"split_type":[0,0,0],"sum_hessian":[2.9562292E0,1.8083072E0,1.147922E0],"tree_param":{"num_deleted":"0","num_feature":"5","num_nodes":"3","size_leaf_vector":"0"}},{"base_weights":[-2.3764235E-3,7.9549916E-2,-8.219147E-2],"categories":[],"categories_nodes":[],"categories_segments":[],"categories_sizes":[],"default_left":[true,false,false],"id":96,"left_children":[1,-1,-1],"loss_changes":[3.2339558E-2,0E0,0E0],"parents":[2147483647,0,0],"right_children":[2,-1,-1],"split_conditions":[1.77515E4,2.3864975E-2,-2.4657441E-2],"split_indices":[0,0,0],"split_type":[0,0,0],"sum_hessian":[2.9457736E0,1.4552997E0,1.4904739E0],"tree_param":{"num_deleted":"0","num_feature":"5","num_nodes":"3","size_leaf_vector":"0"}},{"base_weights":[-1.858767E-3,-9.5788315E-2,6.7911536E-2],"categories":[],"categories_nodes":[],"categories_segments":[],"categories_sizes":[],"default_left":[true,false,false],"id":97,"left_children":[1,-1,-1],"loss_changes":[3.2312937E-2,0E0,0E0],"parents":[2147483647,0,0],"right_children":[2,-1,-1],"split_conditions":[6.1095E3,-2.8736496E-2,2.0373462E-2],"split_indices":[0,0,0],"split_type":[0,0,0],"sum_hessian":[2.938023E0,1.0932738E0,1.8447495E0],"tree_param":{"num_deleted":"0","num_feature":"5","num_nodes":"3","size_leaf_vector":"0"}},{"base_weights":[-3.4328706E-3,7.576866E-2,-7.9643115E-2],"categories":[],"categories_nodes":[],"categories_segments":[],"categories_sizes":[],"default_left":[true,false,false],"id":98,"left_children":[1,-1,-1],"loss_changes":[2.9751264E-2,0E0,0E0],"parents":[2147483647,0,0],"right_children":[2,-1,-1],"split_conditions":[1.77515E4,2.2730598E-2,-2.3892935E-2],"split_indices":[0,0,0],"split_type":[0,0,0],"sum_hessian":[2.9292479E0,1.4392749E0,1.489973E0],"tree_param":{"num_deleted":"0","num_feature":"5","num_nodes":"3","size_leaf_vector":"0"}},{"base_weights":[-2.6998252E-3,-7.477009E-2,9.329769E-2],"categories":[],"categories_nodes":[],"categories_segments":[],"categories_sizes":[],"default_left":[true,false,false],"id":99,"left_children":[1,-1,-1],"loss_changes":[3.4111366E-2,0E0,0E0],"parents":[2147483647,0,0],"right_children":[2,-1,-1],"split_conditions":[4.7339E4,-2.2431029E-2,2.7989307E-2],"split_indices":[0,0,0],"split_type":[0,0,0],"sum_hessian":[2.9221256E0,1.7953721E0,1.1267533E0],"tree_param":{"num_deleted":"0","num_feature":"5","num_nodes":"3","size_leaf_vector":"0"}}]},"name":"gbtree"},"learner_model_param":{"base_score":"5E-1","num_class":"0","num_feature":"5"},"objective":{"name":"binary:logistic","reg_loss_param":{"scale_pos_weight":"1"}}},"version":[1,4,2]}